/* Generated by Edge Impulse
 *
 * Permission is hereby granted, free of charge, to any person obtaining a copy
 * of this software and associated documentation files (the "Software"), to deal
 * in the Software without restriction, including without limitation the rights
 * to use, copy, modify, merge, publish, distribute, sublicense, and/or sell
 * copies of the Software, and to permit persons to whom the Software is
 * furnished to do so, subject to the following conditions:
 *
 * The above copyright notice and this permission notice shall be included in
 * all copies or substantial portions of the Software.
 *
 * THE SOFTWARE IS PROVIDED "AS IS", WITHOUT WARRANTY OF ANY KIND, EXPRESS OR
 * IMPLIED, INCLUDING BUT NOT LIMITED TO THE WARRANTIES OF MERCHANTABILITY,
 * FITNESS FOR A PARTICULAR PURPOSE AND NONINFRINGEMENT. IN NO EVENT SHALL THE
 * AUTHORS OR COPYRIGHT HOLDERS BE LIABLE FOR ANY CLAIM, DAMAGES OR OTHER
 * LIABILITY, WHETHER IN AN ACTION OF CONTRACT, TORT OR OTHERWISE, ARISING FROM,
 * OUT OF OR IN CONNECTION WITH THE SOFTWARE OR THE USE OR OTHER DEALINGS IN THE
 * SOFTWARE.
 */
// Generated on: 23.03.2023 15:32:10

#include <stdio.h>
#include <stdlib.h>
#include "edge-impulse-sdk/tensorflow/lite/c/builtin_op_data.h"
#include "edge-impulse-sdk/tensorflow/lite/c/common.h"
#include "edge-impulse-sdk/tensorflow/lite/micro/micro_mutable_op_resolver.h"
#include "edge-impulse-sdk/porting/ei_classifier_porting.h"

#if EI_CLASSIFIER_PRINT_STATE
#if defined(__cplusplus) && EI_C_LINKAGE == 1
extern "C" {
    extern void ei_printf(const char *format, ...);
}
#else
extern void ei_printf(const char *format, ...);
#endif
#endif

#if defined __GNUC__
#define ALIGN(X) __attribute__((aligned(X)))
#elif defined _MSC_VER
#define ALIGN(X) __declspec(align(X))
#elif defined __TASKING__
#define ALIGN(X) __align(X)
#endif

#ifndef EI_MAX_SCRATCH_BUFFER_COUNT
#define EI_MAX_SCRATCH_BUFFER_COUNT 14
#endif // EI_MAX_SCRATCH_BUFFER_COUNT

#ifndef EI_MAX_OVERFLOW_BUFFER_COUNT
#define EI_MAX_OVERFLOW_BUFFER_COUNT 10
#endif // EI_MAX_OVERFLOW_BUFFER_COUNT

using namespace tflite;
using namespace tflite::ops;
using namespace tflite::ops::micro;

namespace {

constexpr int kTensorArenaSize = 241408;

#if defined(EI_CLASSIFIER_ALLOCATION_STATIC)
uint8_t tensor_arena[kTensorArenaSize] ALIGN(16);
#elif defined(EI_CLASSIFIER_ALLOCATION_STATIC_HIMAX)
#pragma Bss(".tensor_arena")
uint8_t tensor_arena[kTensorArenaSize] ALIGN(16);
#pragma Bss()
#elif defined(EI_CLASSIFIER_ALLOCATION_STATIC_HIMAX_GNU)
uint8_t tensor_arena[kTensorArenaSize] ALIGN(16) __attribute__((section(".tensor_arena")));
#else
#define EI_CLASSIFIER_ALLOCATION_HEAP 1
uint8_t* tensor_arena = NULL;
#endif

static uint8_t* tensor_boundary;
static uint8_t* current_location;

template <int SZ, class T> struct TfArray {
  int sz; T elem[SZ];
};
enum used_operators_e {
  OP_CONV_2D, OP_DEPTHWISE_CONV_2D, OP_PAD, OP_ADD, OP_SOFTMAX,  OP_LAST
};
struct TensorInfo_t { // subset of TfLiteTensor used for initialization from constant memory
  TfLiteAllocationType allocation_type;
  TfLiteType type;
  void* data;
  TfLiteIntArray* dims;
  size_t bytes;
  TfLiteQuantization quantization;
};
struct NodeInfo_t { // subset of TfLiteNode used for initialization from constant memory
  struct TfLiteIntArray* inputs;
  struct TfLiteIntArray* outputs;
  void* builtin_data;
  used_operators_e used_op_index;
};

TfLiteContext ctx{};
TfLiteTensor tflTensors[71];
TfLiteEvalTensor tflEvalTensors[71];
TfLiteRegistration registrations[OP_LAST];
TfLiteNode tflNodes[27];

const TfArray<4, int> tensor_dimension0 = { 4, { 1,96,96,3 } };
const TfArray<1, float> quant0_scale = { 1, { 0.0028143022209405899, } };
const TfArray<1, int> quant0_zero = { 1, { -128 } };
const TfLiteAffineQuantization quant0 = { (TfLiteFloatArray*)&quant0_scale, (TfLiteIntArray*)&quant0_zero, 0 };
const ALIGN(16) int32_t tensor_data1[4*2] = { 
  0, 0, 
  0, 1, 
  0, 1, 
  0, 0, 
};
const TfArray<2, int> tensor_dimension1 = { 2, { 4,2 } };
const ALIGN(16) int8_t tensor_data2[16*3*3*3] = { 
  /* [0][0][][] */ 0,0,0, 0,0,0, 0,0,0, 
  /* [0][1][][] */ 0,0,0, 0,0,0, 0,0,0, 
  /* [0][2][][] */ 0,0,0, 0,0,0, 0,0,0, 
  /* [1][0][][] */ 57,1,40, 5,-19,26, -126,-127,-63, 
  /* [1][1][][] */ 9,-1,6, -15,9,3, 6,-31,11, 
  /* [1][2][][] */ -1,19,2, 0,10,3, 45,-18,17, 
  /* [2][0][][] */ 29,-6,-8, 80,118,0, 39,-40,5, 
  /* [2][1][][] */ 9,12,-3, 70,127,-29, 19,-7,-8, 
  /* [2][2][][] */ 52,-63,21, 79,-39,-18, 33,-54,14, 
  /* [3][0][][] */ 9,41,5, 32,94,16, 1,6,-4, 
  /* [3][1][][] */ 26,46,8, 66,127,18, -12,-18,4, 
  /* [3][2][][] */ 7,8,1, 27,27,6, 1,-2,4, 
  /* [4][0][][] */ 33,70,-19, 13,81,-16, -18,7,-7, 
  /* [4][1][][] */ 39,88,39, 29,119,24, 27,49,-20, 
  /* [4][2][][] */ 59,83,34, 52,127,13, -23,22,17, 
  /* [5][0][][] */ 5,-4,-119, 4,6,-93, -3,28,-25, 
  /* [5][1][][] */ 0,-46,-127, 5,-42,-103, 0,12,-22, 
  /* [5][2][][] */ -5,5,-20, 2,-3,-11, 0,10,-11, 
  /* [6][0][][] */ 26,-62,35, 48,-86,41, 10,-19,9, 
  /* [6][1][][] */ 37,-95,62, 64,-127,71, 8,-27,17, 
  /* [6][2][][] */ 22,-34,14, 15,-43,27, -11,9,1, 
  /* [7][0][][] */ -31,18,6, -118,-47,-5, -27,22,0, 
  /* [7][1][][] */ -7,-3,6, -127,-94,-4, -7,-5,6, 
  /* [7][2][][] */ -14,41,1, -5,19,7, -19,29,0, 
  /* [8][0][][] */ 70,85,122, 72,88,127, 6,14,54, 
  /* [8][1][][] */ 29,39,71, 27,36,73, -37,-34,-1, 
  /* [8][2][][] */ -10,-1,27, -10,-2,32, -80,-79,-52, 
  /* [9][0][][] */ -18,1,13, -13,-5,3, 1,1,-11, 
  /* [9][1][][] */ 104,122,-3, 75,127,19, -8,19,27, 
  /* [9][2][][] */ -19,-18,24, 10,-26,6, 12,5,-19, 
  /* [10][0][][] */ -25,-83,-18, 34,94,20, -8,-13,-2, 
  /* [10][1][][] */ -59,-103,-14, 79,127,15, -17,-26,0, 
  /* [10][2][][] */ -31,-19,2, 36,23,-11, -8,-1,7, 
  /* [11][0][][] */ -5,-17,8, 16,-33,13, 16,-86,-41, 
  /* [11][1][][] */ -37,-33,-11, -27,-53,-28, -7,-49,-43, 
  /* [11][2][][] */ 1,-29,-65, 118,127,68, -28,21,-36, 
  /* [12][0][][] */ 0,0,0, 0,0,0, 0,0,0, 
  /* [12][1][][] */ 0,0,0, 0,0,0, 0,0,0, 
  /* [12][2][][] */ 0,0,0, 0,0,0, 0,0,0, 
  /* [13][0][][] */ -50,-96,-17, -61,-110,-25, -9,-17,-6, 
  /* [13][1][][] */ 62,114,15, 58,127,25, 7,16,11, 
  /* [13][2][][] */ -8,-19,3, 2,-18,-1, 0,4,-4, 
  /* [14][0][][] */ 46,-6,-37, 78,-26,-50, 31,-10,-21, 
  /* [14][1][][] */ 89,-17,-73, 127,-40,-88, 58,-19,-38, 
  /* [14][2][][] */ 54,-11,-46, 73,-23,-53, 24,-8,-20, 
  /* [15][0][][] */ 0,0,0, 0,0,0, 0,0,0, 
  /* [15][1][][] */ 0,0,0, 0,0,0, 0,0,0, 
  /* [15][2][][] */ 0,0,0, 0,0,0, 0,0,0, 
};
const TfArray<4, int> tensor_dimension2 = { 4, { 16,3,3,3 } };
const TfArray<16, float> quant2_scale = { 16, { 4.6555189214814163e-07, 0.098364472389221191, 0.11321080476045609, 0.021579908207058907, 0.0067130480892956257, 0.11164882034063339, 0.060924392193555832, 0.17462581396102905, 0.0026705081108957529, 0.022505596280097961, 0.056405015289783478, 0.006991872563958168, 4.0983076132761198e-07, 0.046775214374065399, 0.059903256595134735, 4.4180566760587681e-08, } };
const TfArray<16, int> quant2_zero = { 16, { 0,0,0,0,0,0,0,0,0,0,0,0,0,0,0,0 } };
const TfLiteAffineQuantization quant2 = { (TfLiteFloatArray*)&quant2_scale, (TfLiteIntArray*)&quant2_zero, 0 };
const ALIGN(16) int32_t tensor_data3[16] = { -1073741824, 18441, -110006, -53448, 57329, 79205, 18217, 50733, -73750, -25532, 18398, 317346, -1073741824, 27754, 15417, -1073741824, };
const TfArray<1, int> tensor_dimension3 = { 1, { 16 } };
const TfArray<16, float> quant3_scale = { 16, { 1.3102037232926023e-09, 0.00027682734071277082, 0.00031860941089689732, 6.0732381825800985e-05, 1.8892545995186083e-05, 0.00031421351013705134, 0.00017145965830422938, 0.00049144984222948551, 7.5156167440582067e-06, 6.3337553001474589e-05, 0.00015874076052568853, 1.9677241652971134e-05, 1.1533876076441629e-09, 0.00013163959374651313, 0.00016858587332535535, 1.243374708748135e-10, } };
const TfArray<16, int> quant3_zero = { 16, { 0,0,0,0,0,0,0,0,0,0,0,0,0,0,0,0 } };
const TfLiteAffineQuantization quant3 = { (TfLiteFloatArray*)&quant3_scale, (TfLiteIntArray*)&quant3_zero, 0 };
const ALIGN(16) int8_t tensor_data4[1*3*3*16] = { 
  /* [0][0][][] */ -108,18,-82,-126,39,-67,80,-76,-90,-3,-8,29,-127,5,54,-73, 51,25,-127,127,127,-127,127,-127,-84,127,-127,51,-105,5,127,-25, 24,-24,90,-2,-72,67,-95,78,-94,-27,4,-15,61,1,-102,-29, 
  /* [0][1][][] */ -127,127,-22,14,-44,15,-29,14,-29,1,3,-109,-49,8,-30,-14, -78,-42,-57,-14,-8,-26,8,-27,-108,-89,21,-12,-104,-127,1,23, 14,1,64,2,3,33,-25,34,-127,6,-2,2,-21,12,-4,43, 
  /* [0][2][][] */ -115,-73,68,2,-6,38,-39,53,-76,0,0,4,40,2,-27,23, 23,-4,31,-2,-27,40,-34,21,-123,-13,0,84,-58,0,-29,-111, 21,-7,19,0,4,14,9,22,-114,4,-1,-127,107,3,17,-127, 
};
const TfArray<4, int> tensor_dimension4 = { 4, { 1,3,3,16 } };
const TfArray<16, float> quant4_scale = { 16, { 0.079427838325500488, 0.0039219232276082039, 0.0040924982167780399, 0.012237120419740677, 0.0060741393826901913, 0.0012490312801674008, 0.015425447374582291, 0.0015778476372361183, 0.0026363399811089039, 0.01149370800703764, 0.0088194999843835831, 0.03017103299498558, 0.030907778069376945, 0.011587630026042461, 0.01031977403908968, 0.16606816649436951, } };
const TfArray<16, int> quant4_zero = { 16, { 0,0,0,0,0,0,0,0,0,0,0,0,0,0,0,0 } };
const TfLiteAffineQuantization quant4 = { (TfLiteFloatArray*)&quant4_scale, (TfLiteIntArray*)&quant4_zero, 3 };
const ALIGN(16) int32_t tensor_data5[16] = { -161, 28660, 41761, 11934, 13086, 112547, 14055, 104486, 7455, 6715, 29050, 14072, -445, 25182, 8498, -107, };
const TfArray<1, int> tensor_dimension5 = { 1, { 16 } };
const TfArray<16, float> quant5_scale = { 16, { 0.0018688903655856848, 9.2280548415146768e-05, 9.6294075774494559e-05, 0.00028793225646950305, 0.00014292092237155885, 2.9388971597654745e-05, 0.00036295171594247222, 3.7125828384887427e-05, 6.2031533161643893e-05, 0.00027044018497690558, 0.0002075176453217864, 0.0007099066860973835, 0.00072724185883998871, 0.00027265012613497674, 0.00024281821970362216, 0.003907486330717802, } };
const TfArray<16, int> quant5_zero = { 16, { 0,0,0,0,0,0,0,0,0,0,0,0,0,0,0,0 } };
const TfLiteAffineQuantization quant5 = { (TfLiteFloatArray*)&quant5_scale, (TfLiteIntArray*)&quant5_zero, 0 };
const ALIGN(16) int8_t tensor_data6[8*1*1*16] = { 
  /* [0][0][][] */ 0,-21,2,1,123,1,-5,1,0,-127,-92,-5,0,126,-3,0, 
  /* [1][0][][] */ 0,-27,-1,85,73,12,20,5,2,-5,127,-39,0,27,-13,0, 
  /* [2][0][][] */ 0,0,-1,-12,-56,6,10,3,-1,4,-18,2,0,127,-8,0, 
  /* [3][0][][] */ 0,-10,-22,-127,76,23,70,15,2,58,0,35,0,-2,19,0, 
  /* [4][0][][] */ 0,42,-24,34,-53,34,127,11,0,-58,17,-5,0,-4,13,0, 
  /* [5][0][][] */ 0,-18,-10,-2,-21,-22,-10,17,3,10,-5,-43,0,-3,127,0, 
  /* [6][0][][] */ 0,21,-4,2,50,-24,-26,-9,1,-111,118,60,0,127,62,0, 
  /* [7][0][][] */ 0,15,-15,127,5,-4,15,7,1,62,-50,77,0,-11,48,0, 
};
const TfArray<4, int> tensor_dimension6 = { 4, { 8,1,1,16 } };
const TfArray<8, float> quant6_scale = { 8, { 0.095175862312316895, 0.086478263139724731, 0.10142376273870468, 0.052237443625926971, 0.057963963598012924, 0.10548115521669388, 0.072684608399868011, 0.042838644236326218, } };
const TfArray<8, int> quant6_zero = { 8, { 0,0,0,0,0,0,0,0 } };
const TfLiteAffineQuantization quant6 = { (TfLiteFloatArray*)&quant6_scale, (TfLiteIntArray*)&quant6_zero, 0 };
const ALIGN(16) int32_t tensor_data7[8] = { -495, -41764, -8416, -11850, -32457, -2853, -24515, -25569, };
const TfArray<1, int> tensor_dimension7 = { 1, { 8 } };
const TfArray<8, float> quant7_scale = { 8, { 0.0022394321858882904, 0.0020347826648503542, 0.0023864414542913437, 0.0012291163438931108, 0.0013638579985126853, 0.0024819094687700272, 0.0017102260608226061, 0.0010079680941998959, } };
const TfArray<8, int> quant7_zero = { 8, { 0,0,0,0,0,0,0,0 } };
const TfLiteAffineQuantization quant7 = { (TfLiteFloatArray*)&quant7_scale, (TfLiteIntArray*)&quant7_zero, 0 };
const ALIGN(16) int8_t tensor_data8[48*1*1*8] = { 
  /* [0][0][][] */ 20,-127,52,-41,30,-10,-58,17, 
  /* [1][0][][] */ 62,61,-23,-103,15,-19,-73,127, 
  /* [2][0][][] */ 31,8,-48,127,53,127,55,97, 
  /* [3][0][][] */ 73,65,-80,127,-101,7,2,6, 
  /* [4][0][][] */ -32,-109,74,15,-1,35,-43,-127, 
  /* [5][0][][] */ 23,9,-33,44,6,-25,34,127, 
  /* [6][0][][] */ 54,-9,-127,-105,110,29,58,-50, 
  /* [7][0][][] */ 127,13,17,-19,28,-2,81,-55, 
  /* [8][0][][] */ 18,-99,10,106,6,24,-7,-127, 
  /* [9][0][][] */ 100,-127,8,2,-9,6,-108,90, 
  /* [10][0][][] */ -127,-40,-122,25,-7,0,-110,61, 
  /* [11][0][][] */ -16,-37,-7,-101,-127,-31,44,-15, 
  /* [12][0][][] */ 13,0,-41,61,-76,-19,62,127, 
  /* [13][0][][] */ 0,0,0,0,0,0,0,0, 
  /* [14][0][][] */ -4,-36,-5,12,39,127,46,42, 
  /* [15][0][][] */ 47,-2,13,-127,71,34,-50,81, 
  /* [16][0][][] */ 0,0,0,0,0,0,0,0, 
  /* [17][0][][] */ 18,25,127,18,-21,-8,27,28, 
  /* [18][0][][] */ 88,-127,25,28,1,14,-124,-1, 
  /* [19][0][][] */ -127,-17,27,89,-62,-73,-94,86, 
  /* [20][0][][] */ 32,28,-49,103,-17,-127,-13,61, 
  /* [21][0][][] */ 56,20,127,11,-16,-12,70,13, 
  /* [22][0][][] */ -75,-16,-127,4,3,14,-105,5, 
  /* [23][0][][] */ -99,117,-21,-15,10,-13,127,-69, 
  /* [24][0][][] */ 5,-57,-54,82,-7,-62,108,127, 
  /* [25][0][][] */ 17,51,34,37,127,99,-74,-62, 
  /* [26][0][][] */ -83,-29,-127,-3,10,17,-99,-4, 
  /* [27][0][][] */ 0,-14,-28,7,-45,127,64,44, 
  /* [28][0][][] */ -3,-16,-20,43,25,127,52,57, 
  /* [29][0][][] */ 80,34,127,-3,-15,-11,85,-12, 
  /* [30][0][][] */ -74,127,-20,-26,11,-2,94,-52, 
  /* [31][0][][] */ -48,-92,-27,2,39,-70,127,104, 
  /* [32][0][][] */ 7,-2,-55,122,-9,101,87,127, 
  /* [33][0][][] */ 4,53,-15,-93,10,-10,-3,127, 
  /* [34][0][][] */ -22,81,-10,-89,35,-14,19,127, 
  /* [35][0][][] */ 127,13,-9,-35,25,38,91,-46, 
  /* [36][0][][] */ -127,-8,22,56,-31,9,-110,79, 
  /* [37][0][][] */ 0,-25,-10,25,27,127,53,51, 
  /* [38][0][][] */ 16,31,10,86,127,-14,-19,39, 
  /* [39][0][][] */ 8,25,35,-124,24,-3,-39,127, 
  /* [40][0][][] */ 88,31,127,-3,-13,-11,98,-13, 
  /* [41][0][][] */ 4,-29,-31,89,54,127,81,119, 
  /* [42][0][][] */ -67,-14,127,28,-39,16,-29,63, 
  /* [43][0][][] */ -11,-56,7,100,-16,8,19,-127, 
  /* [44][0][][] */ 38,1,-59,-127,59,-27,-2,-111, 
  /* [45][0][][] */ -93,127,-6,-54,13,-5,79,-57, 
  /* [46][0][][] */ -127,-26,33,24,-25,36,-89,38, 
  /* [47][0][][] */ 118,20,127,1,26,-12,124,-18, 
};
const TfArray<4, int> tensor_dimension8 = { 4, { 48,1,1,8 } };
const TfArray<48, float> quant8_scale = { 48, { 0.00092711555771529675, 0.0010568947764113545, 0.00061448226915672421, 0.00061471137451007962, 0.00058656802866607904, 0.00060630805091932416, 0.00076465256279334426, 0.0034985835663974285, 0.00087824166985228658, 0.0044155502691864967, 0.0012447369517758489, 0.003682245034724474, 0.00035428162664175034, 3.937008052901092e-09, 0.0017457198118790984, 0.00037236823118291795, 3.937008052901092e-09, 0.013274062424898148, 0.00074133864836767316, 0.0006929091177880764, 0.00057155458489432931, 0.0094414539635181427, 0.00067111046519130468, 0.0028940278571099043, 0.0019766357727348804, 0.0012193180155009031, 0.0046643931418657303, 0.003889935789629817, 0.00055912998504936695, 0.003499545156955719, 0.0022882786579430103, 0.00029824857483617961, 0.00037577806506305933, 0.022789394482970238, 0.0010759194847196341, 0.0015219635097309947, 0.011141140013933182, 0.00067893258528783917, 0.0047865817323327065, 0.0006327418377622962, 0.0026376063469797373, 0.0003213419986423105, 0.0012544961646199226, 0.020817102864384651, 0.00076067470945417881, 0.00092124618822708726, 0.00078345718793570995, 0.00039956168620847166, } };
const TfArray<48, int> quant8_zero = { 48, { 0,0,0,0,0,0,0,0,0,0,0,0,0,0,0,0,0,0,0,0,0,0,0,0,0,0,0,0,0,0,0,0,0,0,0,0,0,0,0,0,0,0,0,0,0,0,0,0 } };
const TfLiteAffineQuantization quant8 = { (TfLiteFloatArray*)&quant8_scale, (TfLiteIntArray*)&quant8_zero, 0 };
const ALIGN(16) int32_t tensor_data9[48] = { 3882, 53, 8722, 5214, 5842, 5866, 8551, -28, 35, -296, 2023, 397, 10593, -70269176, 2573, 15196, -56724924, -93, -494, 9581, 3169, -17, -28, 365, 3265, -828, 61, 536, 3409, 1423, 2209, 13517, 3458, 240, 160, -1355, 234, 3221, -139, 9413, 1818, 11708, -214, -68, 11296, 145, 6076, 3847, };
const TfArray<1, int> tensor_dimension9 = { 1, { 48 } };
const TfArray<48, float> quant9_scale = { 48, { 0.00054351281141862273, 0.00061959470622241497, 0.00036023449501954019, 0.00036036880919709802, 0.00034387002233415842, 0.00035544243291951716, 0.00044827040983363986, 0.0020510118920356035, 0.0005148609634488821, 0.0025885750073939562, 0.00072971539339050651, 0.0021586816292256117, 0.00020769429102074355, 2.3080342081982508e-09, 0.0010234118672087789, 0.00021829739853274077, 2.3080342081982508e-09, 0.007781794760376215, 0.00043460284359753132, 0.00040621150401420891, 0.00033506852923892438, 0.0055349641479551792, 0.0003934322448913008, 0.0016965967370197177, 0.0011587842600420117, 0.00071481376653537154, 0.0027344569098204374, 0.0022804385516792536, 0.00032778471359051764, 0.0020515755750238895, 0.001341481925919652, 0.00017484543786849827, 0.0002202963805757463, 0.013360069133341312, 0.00063074775971472263, 0.00089223688701167703, 0.0065313889645040035, 0.00039801787352189422, 0.002806088887155056, 0.00037093900027684867, 0.0015462720766663551, 0.00018838373944163322, 0.00073543662438169122, 0.012203832156956196, 0.00044593843631446362, 0.00054007198195904493, 0.00045929444604553282, 0.000234239298151806, } };
const TfArray<48, int> quant9_zero = { 48, { 0,0,0,0,0,0,0,0,0,0,0,0,0,0,0,0,0,0,0,0,0,0,0,0,0,0,0,0,0,0,0,0,0,0,0,0,0,0,0,0,0,0,0,0,0,0,0,0 } };
const TfLiteAffineQuantization quant9 = { (TfLiteFloatArray*)&quant9_scale, (TfLiteIntArray*)&quant9_zero, 0 };
const ALIGN(16) int8_t tensor_data10[1*3*3*48] = { 
  /* [0][0][][] */ -42,-22,-6,-17,7,-40,-79,-68,-27,-50,7,64,34,-71,114,-43,-113,-84,37,-7,-1,-70,-110,-79,-35,-125,-65,-21,71,15,95,27,-127,-89,-7,55,19,48,-127,77,-77,-14,106,-106,-2,-35,-87,107, 75,12,-27,-29,57,-127,-127,-80,61,-76,-116,108,38,-82,-1,62,-52,-112,58,7,10,-112,-127,-70,-4,-127,-122,-41,-54,21,-57,54,29,-127,64,84,14,72,-92,127,-127,6,125,-127,1,-22,-127,94, -32,43,7,-4,-65,-109,-59,-17,87,-8,-127,37,7,-71,-100,-11,-127,-25,28,11,-15,-75,-35,-24,-10,-31,-59,-13,-9,17,-24,10,107,-85,69,32,15,36,-4,16,-79,3,7,-81,-18,5,-56,15, 
  /* [0][1][][] */ -85,-127,-44,-44,-11,54,98,-104,-26,-111,-21,111,90,-64,27,-97,-121,-93,90,-77,41,-87,-102,-127,42,-118,-79,-39,127,-61,127,85,-43,-84,-14,84,-35,-76,-108,89,42,59,105,-107,-91,-118,82,119, 127,-82,-127,-127,127,40,93,-127,101,-127,-111,127,127,-14,-6,127,-60,-127,127,-127,127,-127,-119,-120,127,-98,-127,-127,-119,-127,-71,127,28,-111,127,127,-68,-127,-97,90,61,127,127,-118,-113,-127,124,127, -53,31,-62,-84,-120,-23,30,-38,127,-21,-76,35,55,-70,-25,-44,-37,-30,55,-72,57,-80,-39,-24,48,-6,-46,-62,16,-90,-36,20,30,-96,117,24,-36,-62,2,-15,36,53,10,-76,-58,-37,65,36, 
  /* [0][2][][] */ -60,-106,-33,-34,-1,35,-4,-35,-37,-60,-17,58,76,-127,-127,-64,-43,-18,65,75,50,-32,-12,-60,32,-55,-11,-60,75,29,77,63,108,-26,-37,-9,-94,36,-18,30,10,38,16,-56,97,-77,4,31, 87,-73,-88,-84,81,19,7,-47,48,-70,-33,56,82,-26,15,92,-24,-30,77,118,80,-52,-17,-57,93,-69,-19,-99,-51,40,-45,111,-18,-48,67,6,-127,50,-15,-2,11,32,16,-66,127,-99,-12,40, -28,29,-41,-36,-80,-18,22,-12,59,-5,-13,31,30,-43,110,-29,-93,-6,30,59,73,-27,-1,-3,43,0,-4,-64,-14,28,-20,40,-90,-41,65,4,-20,22,27,-39,6,35,-4,-15,62,-34,-5,18, 
};
const TfArray<4, int> tensor_dimension10 = { 4, { 1,3,3,48 } };
const TfArray<48, float> quant10_scale = { 48, { 0.0035677291452884674, 0.0027185003273189068, 0.0080688614398241043, 0.0051795062609016895, 0.0084537314251065254, 0.0074401353485882282, 0.0062907664105296135, 0.0029498967342078686, 0.0042600994929671288, 0.0018750145100057125, 0.0038872500881552696, 0.0015913189854472876, 0.0077880006283521652, 0.23551659286022186, 0.0032010097056627274, 0.009221949614584446, 0.1168077290058136, 0.0012925539631396532, 0.0033796527422964573, 0.0061577633023262024, 0.0049102753400802612, 0.0079365912824869156, 0.0048090191558003426, 0.0017374446615576744, 0.0038397733587771654, 0.0069222808815538883, 0.0017594228265807033, 0.0019748276099562645, 0.0098889889195561409, 0.0034045160282403231, 0.0028612744063138962, 0.0099738752469420433, 0.0098889647051692009, 0.00042510853381827474, 0.0041619432158768177, 0.0090613523498177528, 0.00061017787083983421, 0.016010569408535957, 0.001676094951108098, 0.003849453292787075, 0.0032423015218228102, 0.0093628084287047386, 0.0035506619606167078, 0.00044723518658429384, 0.0082437638193368912, 0.0041251862421631813, 0.0090918531641364098, 0.0054402383975684643, } };
const TfArray<48, int> quant10_zero = { 48, { 0,0,0,0,0,0,0,0,0,0,0,0,0,0,0,0,0,0,0,0,0,0,0,0,0,0,0,0,0,0,0,0,0,0,0,0,0,0,0,0,0,0,0,0,0,0,0,0 } };
const TfLiteAffineQuantization quant10 = { (TfLiteFloatArray*)&quant10_scale, (TfLiteIntArray*)&quant10_zero, 3 };
const ALIGN(16) int32_t tensor_data11[48] = { 70496, 60774, 60157, 42254, 218, 13720, 3445, 23306, 22521, 11356, 28429, 2430, -45657, -127, 33650, 637, -204, 17834, 4804, 2770, -15670, -840, 49956, 26916, -18955, 17101, 28896, 21085, -2381, 14663, -7787, -51472, 10495, 74554, 27123, 1411, 56092, -364, 117803, -25802, 16755, -27545, 5142, 92736, -1208, 59896, 572, -22961, };
const TfArray<1, int> tensor_dimension11 = { 1, { 48 } };
const TfArray<48, float> quant11_scale = { 48, { 8.3946571976412088e-05, 6.3964711443986744e-05, 0.00018985556380357593, 0.00012187074025860056, 0.00019891133706551045, 0.00017506201402284205, 0.00014801803627051413, 6.9409339630510658e-05, 0.00010023763752542436, 4.4117990910308436e-05, 9.1464709839783609e-05, 3.7442801840370521e-05, 0.00018324707343708724, 0.005541567225009203, 7.5317875598557293e-05, 0.00021698705677408725, 0.0027484172023832798, 3.0413035347010009e-05, 7.9521239968016744e-05, 0.00014488854503724724, 0.00011553589138202369, 0.00018674333114176989, 0.00011315339361317456, 4.0881051972974092e-05, 9.0347610239405185e-05, 0.00016287720063701272, 4.1398183384444565e-05, 4.6466531784972176e-05, 0.00023268209770321846, 8.0106263339985162e-05, 6.7324108385946602e-05, 0.00023467942082788795, 0.00023268153017852455, 1.000255360850133e-05, 9.7928073955699801e-05, 0.00021320828818716109, 1.435712692909874e-05, 0.0003767192829400301, 3.943752744817175e-05, 9.0575376816559583e-05, 7.6289448770694435e-05, 0.00022030137188266963, 8.3544990047812462e-05, 1.0523181117605418e-05, 0.00019397091818973422, 9.7063209977932274e-05, 0.00021392595954239368, 0.00012800561671610922, } };
const TfArray<48, int> quant11_zero = { 48, { 0,0,0,0,0,0,0,0,0,0,0,0,0,0,0,0,0,0,0,0,0,0,0,0,0,0,0,0,0,0,0,0,0,0,0,0,0,0,0,0,0,0,0,0,0,0,0,0 } };
const TfLiteAffineQuantization quant11 = { (TfLiteFloatArray*)&quant11_scale, (TfLiteIntArray*)&quant11_zero, 0 };
const ALIGN(16) int8_t tensor_data12[8*1*1*48] = { 
  /* [0][0][][] */ -10,2,9,-87,7,24,6,8,0,9,3,-8,90,0,-1,4,0,-7,-7,-1,72,-3,1,7,28,38,18,7,2,4,-1,-127,12,9,-3,-1,-24,-1,-10,29,5,-24,-11,8,2,0,2,1, 
  /* [1][0][][] */ -38,-10,1,-3,47,33,-29,77,22,7,-31,-22,12,0,20,41,0,42,21,-47,1,21,127,17,-27,-2,57,5,22,-4,22,-10,14,-6,-9,-17,5,-55,10,4,-10,-8,-81,-10,-32,4,-47,-97, 
  /* [2][0][][] */ -57,17,-2,8,44,-10,27,28,-9,58,8,-7,5,0,5,52,0,16,-127,21,1,12,8,-15,-26,4,37,3,7,29,26,4,7,-5,-13,-14,6,1,6,0,33,-5,-32,0,23,-58,23,11, 
  /* [3][0][][] */ 0,4,1,11,-5,26,0,-4,66,20,0,-3,24,0,-30,-10,0,-3,-10,2,-6,1,7,-18,-14,-8,-7,-1,-5,-5,-2,-10,-47,43,-51,-2,8,2,6,-127,0,2,2,-51,-2,-3,-1,8, 
  /* [4][0][][] */ 0,-2,78,32,2,-22,-3,-2,3,-3,-4,-12,-83,0,-10,3,0,6,5,0,61,3,0,-3,-16,28,-4,47,-8,-3,-3,91,4,6,-1,-4,11,-10,-13,-18,-3,-127,3,-3,-1,-2,0,-1, 
  /* [5][0][][] */ -4,46,4,-9,2,48,24,14,-22,32,10,55,26,0,-127,-3,0,13,-40,19,-11,9,-12,42,-21,-1,29,-5,-14,22,22,-19,52,25,-39,-6,3,15,-46,16,23,-14,-11,33,22,61,21,24, 
  /* [6][0][][] */ -19,-53,2,8,36,-47,-20,8,29,-24,-12,88,-3,0,-127,33,0,-8,43,-21,-3,3,26,-36,31,-1,-5,-13,47,-12,-11,-1,91,-29,25,-3,-1,-9,-72,-23,-14,-14,-6,-31,-23,-78,-21,-27, 
  /* [7][0][][] */ -112,-21,-13,8,127,20,66,24,15,8,33,-37,-30,0,89,106,0,12,4,59,-12,-2,-30,44,19,8,48,0,47,63,56,-8,-8,-14,-17,-22,8,23,25,32,71,5,-30,-13,58,-1,61,76, 
};
const TfArray<4, int> tensor_dimension12 = { 4, { 8,1,1,48 } };
const TfArray<8, float> quant12_scale = { 8, { 0.058945197612047195, 0.030577637255191803, 0.082106783986091614, 0.061360586434602737, 0.047060273587703705, 0.058470465242862701, 0.038919270038604736, 0.025419812649488449, } };
const TfArray<8, int> quant12_zero = { 8, { 0,0,0,0,0,0,0,0 } };
const TfLiteAffineQuantization quant12 = { (TfLiteFloatArray*)&quant12_scale, (TfLiteIntArray*)&quant12_zero, 0 };
const ALIGN(16) int32_t tensor_data13[8] = { -5991, -25257, 24248, 21262, 4497, -615, 35986, 11432, };
const TfArray<1, int> tensor_dimension13 = { 1, { 8 } };
const TfArray<8, float> quant13_scale = { 8, { 0.0013869458343833685, 0.00071947381366044283, 0.0019319243729114532, 0.001443778513930738, 0.0011073006317019463, 0.0013757756678387523, 0.00091574754333123565, 0.00059811322716996074, } };
const TfArray<8, int> quant13_zero = { 8, { 0,0,0,0,0,0,0,0 } };
const TfLiteAffineQuantization quant13 = { (TfLiteFloatArray*)&quant13_scale, (TfLiteIntArray*)&quant13_zero, 0 };
const ALIGN(16) int8_t tensor_data14[48*1*1*8] = { 
  /* [0][0][][] */ 75,34,-4,-13,127,30,-50,-29, 
  /* [1][0][][] */ -5,-2,2,127,6,-7,9,15, 
  /* [2][0][][] */ 31,-127,-27,38,-3,-71,82,15, 
  /* [3][0][][] */ 127,-32,-8,13,-11,-33,32,9, 
  /* [4][0][][] */ 10,-33,127,-16,-10,-48,14,-102, 
  /* [5][0][][] */ 65,-2,-3,-3,127,11,-3,4, 
  /* [6][0][][] */ -13,88,-18,127,30,53,-69,-53, 
  /* [7][0][][] */ -9,127,-2,0,-1,-14,19,1, 
  /* [8][0][][] */ 127,45,-5,5,-50,-11,4,-32, 
  /* [9][0][][] */ -127,19,4,18,53,7,-13,-3, 
  /* [10][0][][] */ -65,-5,4,127,34,33,-7,-8, 
  /* [11][0][][] */ -127,-6,5,-62,53,-1,-22,-43, 
  /* [12][0][][] */ 127,17,-2,12,-41,-10,2,-33, 
  /* [13][0][][] */ -11,77,-127,-9,13,103,-75,78, 
  /* [14][0][][] */ -45,-30,-11,127,32,13,-5,-25, 
  /* [15][0][][] */ -6,127,4,-4,3,-14,11,-52, 
  /* [16][0][][] */ -7,-127,-19,10,-14,-122,119,-35, 
  /* [17][0][][] */ 14,127,8,-6,5,71,-88,-15, 
  /* [18][0][][] */ -10,34,-127,-8,13,52,-28,67, 
  /* [19][0][][] */ -69,20,1,12,-127,2,17,18, 
  /* [20][0][][] */ -127,-28,-4,-7,86,-24,64,3, 
  /* [21][0][][] */ -63,0,-5,0,-127,-6,23,5, 
  /* [22][0][][] */ -127,-24,1,-8,76,-15,34,47, 
  /* [23][0][][] */ -17,-23,-9,-12,-2,81,-127,-85, 
  /* [24][0][][] */ -7,41,-127,4,11,43,-20,71, 
  /* [25][0][][] */ 96,-48,7,127,-89,2,12,-48, 
  /* [26][0][][] */ -1,-18,-2,5,-10,125,127,-33, 
  /* [27][0][][] */ 57,-5,-16,8,127,33,41,-22, 
  /* [28][0][][] */ -3,127,-71,-1,10,72,-30,118, 
  /* [29][0][][] */ -6,9,-1,-5,-5,91,-127,-82, 
  /* [30][0][][] */ 6,-4,0,-127,-8,3,0,-11, 
  /* [31][0][][] */ -69,-2,6,-2,-127,8,15,3, 
  /* [32][0][][] */ -11,38,26,-127,-8,40,-91,-108, 
  /* [33][0][][] */ -59,-7,-9,2,-127,47,46,-2, 
  /* [34][0][][] */ -127,85,14,41,56,-32,2,5, 
  /* [35][0][][] */ -15,127,-23,-1,-4,-101,79,-34, 
  /* [36][0][][] */ -10,55,18,-31,1,104,-127,-36, 
  /* [37][0][][] */ 28,-74,-5,18,24,-120,127,-13, 
  /* [38][0][][] */ -1,-127,1,-7,18,48,-45,71, 
  /* [39][0][][] */ 5,-127,-11,-8,-3,-8,-50,-92, 
  /* [40][0][][] */ 117,48,1,-9,-52,80,-127,-95, 
  /* [41][0][][] */ 11,-127,20,1,-4,78,-56,122, 
  /* [42][0][][] */ 59,1,-8,-127,-52,8,-2,-44, 
  /* [43][0][][] */ -84,-23,16,-127,63,11,-23,-15, 
  /* [44][0][][] */ -4,-30,2,23,-20,105,127,-17, 
  /* [45][0][][] */ -127,-25,-4,-16,12,13,26,-24, 
  /* [46][0][][] */ 11,79,127,0,-5,5,12,25, 
  /* [47][0][][] */ -5,1,13,127,6,0,1,5, 
};
const TfArray<4, int> tensor_dimension14 = { 4, { 48,1,1,8 } };
const TfArray<48, float> quant14_scale = { 48, { 0.00015378666284959763, 0.00073477393016219139, 0.0005982215516269207, 0.0012234359746798873, 0.003437655046582222, 0.0012934244005009532, 0.0023808088153600693, 0.0029303168412297964, 0.0014011093880981207, 0.0015074200928211212, 0.001699551590718329, 0.0012905373005196452, 0.0012991767143830657, 0.0012579201720654964, 0.0013944355305284262, 0.0044602476991713047, 0.00075665389886125922, 0.00083446339704096317, 0.0045125759206712246, 0.0002724664518609643, 0.00056335859699174762, 0.00084457016782835126, 0.0010194104397669435, 0.0025645024143159389, 0.00078961363760754466, 0.00055992300622165203, 0.00032348179956898093, 0.00096033170120790601, 0.0018415380036458373, 0.0024554494302719831, 0.0012967288494110107, 0.00094253959832713008, 0.0022379162255674601, 0.00055436126422137022, 0.00079575757263228297, 0.00075677316635847092, 0.0011752605205401778, 0.00078088330337777734, 0.00030157578294165432, 0.0063745933584868908, 0.0013172132894396782, 0.0028674467466771603, 0.00089298887178301811, 0.0010646440787240863, 0.00054546812316402793, 0.0011866743443533778, 0.0022705441806465387, 0.0024260159116238356, } };
const TfArray<48, int> quant14_zero = { 48, { 0,0,0,0,0,0,0,0,0,0,0,0,0,0,0,0,0,0,0,0,0,0,0,0,0,0,0,0,0,0,0,0,0,0,0,0,0,0,0,0,0,0,0,0,0,0,0,0 } };
const TfLiteAffineQuantization quant14 = { (TfLiteFloatArray*)&quant14_scale, (TfLiteIntArray*)&quant14_zero, 0 };
const ALIGN(16) int32_t tensor_data15[48] = { 57002, 6289, 5176, 5338, 1311, 7893, -1634, -210, 815, 1840, 2700, 182, 1508, -750, 652, -1647, 4345, 10310, -224, 20082, 4395, 2432, 7854, -412, 3119, 4206, 25451, 7723, -64, -2136, 98, 1822, -1791, 8040, 2713, 4971, 6307, 3507, 15683, 1436, -910, 1942, 1170, 2844, 4461, 1895, -1040, 2235, };
const TfArray<1, int> tensor_dimension15 = { 1, { 48 } };
const TfArray<48, float> quant15_scale = { 48, { 7.5943258707411587e-05, 0.00036284764064475894, 0.00029541505500674248, 0.00060415978077799082, 0.0016975902253761888, 0.00063872162718325853, 0.0011756961466744542, 0.0014470553724095225, 0.00069189886562526226, 0.00074439746094867587, 0.00083927623927593231, 0.00063729588873684406, 0.00064156221924349666, 0.0006211888394318521, 0.00068860314786434174, 0.0022025690414011478, 0.00037365246680565178, 0.00041207650792784989, 0.0022284099832177162, 0.0001345499767921865, 0.00027819894603453577, 0.00041706746560521424, 0.00050340744201093912, 0.0012664081295952201, 0.00038992869667708874, 0.00027650239644572139, 0.00015974248526617885, 0.0004742330638691783, 0.00090939225628972054, 0.0012125553330406547, 0.00064035342074930668, 0.00046544693759642541, 0.0011051326291635633, 0.00027375586796551943, 0.00039296271279454231, 0.00037371134385466576, 0.00058036966947838664, 0.00038561748806387186, 0.00014892480976413935, 0.0031479154713451862, 0.00065046909730881453, 0.0014160086866468191, 0.00044097768841311336, 0.00052574486471712589, 0.0002693642454687506, 0.00058600609190762043, 0.0011212449753656983, 0.0011980204144492745, } };
const TfArray<48, int> quant15_zero = { 48, { 0,0,0,0,0,0,0,0,0,0,0,0,0,0,0,0,0,0,0,0,0,0,0,0,0,0,0,0,0,0,0,0,0,0,0,0,0,0,0,0,0,0,0,0,0,0,0,0 } };
const TfLiteAffineQuantization quant15 = { (TfLiteFloatArray*)&quant15_scale, (TfLiteIntArray*)&quant15_zero, 0 };
const ALIGN(16) int8_t tensor_data16[1*3*3*48] = { 
  /* [0][0][][] */ 5,-3,21,108,4,81,0,28,16,8,9,8,-9,-9,-45,9,-2,8,-23,-114,-7,-22,127,-10,-2,6,-5,10,-4,4,16,99,20,28,38,-28,1,35,-2,2,17,-68,-9,-9,16,3,-6,-11, 127,10,15,-127,28,87,11,11,125,127,7,43,-50,-24,5,8,127,-56,-59,-56,-102,25,-109,15,17,71,-32,-84,25,21,10,-123,5,-61,127,9,-40,-46,-5,115,-79,-97,-30,2,-34,-8,-127,23, -32,-3,8,14,0,65,4,18,28,9,-14,32,-15,-3,16,4,-103,29,-2,78,-32,-12,-18,-6,-4,-59,-3,30,-16,4,4,-22,7,-24,17,-19,0,48,41,-12,50,38,-16,11,-43,4,-1,-5, 
  /* [0][1][][] */ 125,7,1,-98,14,-27,36,-16,10,9,-14,54,-7,-1,18,-32,0,-50,-60,-87,9,-73,-125,-19,5,98,-14,-127,-8,33,12,-108,17,-53,-2,127,-3,59,-41,41,-63,-127,39,-89,-44,-14,-12,-6, 26,-127,-127,115,-127,-127,-127,-127,-127,-95,127,-127,127,127,35,-127,-83,127,127,-106,127,127,112,127,127,-127,-127,29,-127,-127,93,127,-127,127,-28,-42,127,-127,127,127,127,-79,127,127,127,-121,101,107, 53,5,49,-14,6,-61,44,19,-23,15,-106,-7,0,-40,127,5,63,-66,-70,86,13,-46,11,-34,1,6,-38,69,20,40,1,3,31,-44,9,66,-5,65,67,-10,-81,8,-85,-32,27,-15,-10,6, 
  /* [0][2][][] */ -53,-7,26,-17,7,34,-37,23,9,-23,11,33,5,-6,-38,18,5,21,-14,105,5,-32,-17,-12,-3,22,-1,52,-9,3,46,-32,-18,-44,-31,-40,-1,31,9,-22,9,-4,42,-37,-36,18,-10,17, 68,125,75,21,16,-20,123,35,19,-3,43,27,-6,-1,-91,25,-58,-57,-36,123,-38,48,12,20,32,-63,-41,30,78,0,127,22,84,-26,8,-36,-25,-17,-12,118,-28,-12,-41,45,21,-32,7,-127, -42,-4,7,-4,5,-5,-61,8,-18,-10,-41,-40,19,-9,-10,11,33,24,-8,-127,23,-10,4,-9,-7,11,-11,-55,-15,8,6,8,-21,86,-36,-23,-4,37,24,-60,4,8,-38,6,-43,127,-5,-4, 
};
const TfArray<4, int> tensor_dimension16 = { 4, { 1,3,3,48 } };
const TfArray<48, float> quant16_scale = { 48, { 0.013843231834471226, 0.012854967266321182, 0.007483441848307848, 0.009482240304350853, 0.0073081939481198788, 0.004044567234814167, 0.043598715215921402, 0.0068176551721990108, 0.010084147565066814, 0.0073376442305743694, 0.0052426867187023163, 0.0059880674816668034, 0.017047533765435219, 0.0077157537452876568, 0.0041691134683787823, 0.061355497688055038, 0.0092289261519908905, 0.012132421135902405, 0.0040603512898087502, 0.0069902748800814152, 0.008092069998383522, 0.0072617214173078537, 0.011313216760754585, 0.01051033940166235, 0.0068211178295314312, 0.0063759018667042255, 0.032728556543588638, 0.0039924201555550098, 0.014257327653467655, 0.42184028029441833, 0.0041512297466397285, 0.008504076860845089, 0.053139239549636841, 0.0074628144502639771, 0.0088642602786421776, 0.0068814121186733246, 0.017202133312821388, 0.0059315785765647888, 0.011589447967708111, 0.0010132560273632407, 0.012572687119245529, 0.0029241838492453098, 0.0075264666229486465, 0.006018404383212328, 0.0061569302342832088, 0.0045984820462763309, 0.0093300128355622292, 0.0067755468189716339, } };
const TfArray<48, int> quant16_zero = { 48, { 0,0,0,0,0,0,0,0,0,0,0,0,0,0,0,0,0,0,0,0,0,0,0,0,0,0,0,0,0,0,0,0,0,0,0,0,0,0,0,0,0,0,0,0,0,0,0,0 } };
const TfLiteAffineQuantization quant16 = { (TfLiteFloatArray*)&quant16_scale, (TfLiteIntArray*)&quant16_zero, 3 };
const ALIGN(16) int32_t tensor_data17[48] = { -52235, -74, 9294, 164, 5795, -5936, 1039, 21665, 575, 27661, -2175, 30829, -5490, -977, 26030, 1029, 451, 15040, 23173, 11372, 489, -737, 388, 8288, -8212, 24338, 46012, 35513, 1975, 76, -142, 1004, 719, 16295, -7106, 15883, -10662, 18413, -22121, 97945, 11038, 19257, 9475, -1539, 16176, 3238, 1109, -157, };
const TfArray<1, int> tensor_dimension17 = { 1, { 48 } };
const TfArray<48, float> quant17_scale = { 48, { 0.00032572311465628445, 0.00030246982350945473, 0.00017608098278287798, 0.00022311153588816524, 0.00017195750842802227, 9.5166287792380899e-05, 0.0010258521651849151, 0.00016041542403399944, 0.00023727407096885145, 0.00017265045607928187, 0.00012335734209045768, 0.00014089570322539657, 0.00040111845009960234, 0.00018154714780393988, 9.8096788860857487e-05, 0.0014436588389798999, 0.00021715120237786323, 0.00028546873363666236, 9.5537681772839278e-05, 0.0001644770527491346, 0.00019040165352635086, 0.0001708640338620171, 0.000266193354036659, 0.00024730211589485407, 0.00016049690020736307, 0.00015002122381702065, 0.00077008368680253625, 9.3939299404155463e-05, 0.00033546655322425067, 0.0099256541579961777, 9.7675998404156417e-05, 0.00020009593572467566, 0.0012503350153565407, 0.00017559563275426626, 0.00020857084018643945, 0.00016191558097489178, 0.00040475607966072857, 0.000139566560392268, 0.00027269290876574814, 2.38413194892928e-05, 0.00029582795104943216, 6.8804329202976078e-05, 0.00017709333042148501, 0.00014160951832309365, 0.00014486894360743463, 0.00010819957969943061, 0.00021952971292193979, 0.00015942462778184563, } };
const TfArray<48, int> quant17_zero = { 48, { 0,0,0,0,0,0,0,0,0,0,0,0,0,0,0,0,0,0,0,0,0,0,0,0,0,0,0,0,0,0,0,0,0,0,0,0,0,0,0,0,0,0,0,0,0,0,0,0 } };
const TfLiteAffineQuantization quant17 = { (TfLiteFloatArray*)&quant17_scale, (TfLiteIntArray*)&quant17_zero, 0 };
const ALIGN(16) int8_t tensor_data18[8*1*1*48] = { 
  /* [0][0][][] */ -48,-17,-39,12,-1,-25,7,-4,-118,127,-39,110,110,13,65,-31,-9,-37,12,-4,-10,-9,-24,-30,19,-85,14,55,-22,12,13,-35,5,-67,97,26,10,-8,-11,-14,118,0,37,-29,-27,17,-22,-29, 
  /* [1][0][][] */ 1,34,127,8,-2,-20,5,-80,31,-7,30,6,-19,9,-12,-117,17,-54,8,6,-21,36,26,-37,-16,-2,18,-1,9,-7,15,6,1,14,18,13,-8,-34,63,-61,12,37,-12,32,-11,6,27,-1, 
  /* [2][0][][] */ 6,-51,16,-41,33,27,-5,-31,6,-1,-2,15,-10,58,1,-4,-37,127,-24,-35,-15,21,-37,-10,120,5,3,-8,-26,-9,2,-41,-6,-15,-1,11,-9,-1,-15,8,16,-16,-25,-2,2,26,-23,-41, 
  /* [3][0][][] */ 3,-89,-3,2,3,-6,-11,-4,-8,-17,22,22,16,-7,46,0,-11,-24,1,24,-6,23,-25,-4,8,47,-1,6,-8,3,127,2,10,8,-5,-1,-23,-18,-11,7,-10,7,-9,25,-8,-5,1,32, 
  /* [4][0][][] */ -98,11,3,-1,2,-38,7,6,44,-41,20,-21,-35,2,-10,-9,5,5,-2,25,13,-30,15,0,-6,45,4,108,0,-2,-7,-26,1,-127,-35,14,4,1,3,2,-56,-8,-9,16,-63,3,5,5, 
  /* [5][0][][] */ -25,23,24,5,-51,17,-5,44,29,-1,12,8,-4,-42,1,33,-2,-87,21,-1,41,-43,11,38,13,5,-81,-44,-45,-34,19,-1,-6,-67,-5,-64,64,15,-47,10,21,-44,1,3,127,-10,-43,-8, 
  /* [6][0][][] */ -27,-26,-17,-11,35,-37,-6,-17,-12,-4,28,-22,-14,33,8,-47,-8,1,0,-23,-40,40,-14,-77,-3,-12,-53,-66,41,50,-19,-7,-3,-65,-13,61,-69,-52,10,-56,-11,8,20,41,127,-31,40,20, 
  /* [7][0][][] */ 13,29,-75,22,-23,12,2,54,-9,0,59,-30,7,-29,-8,-6,-19,-127,41,-43,55,36,13,-51,20,-22,23,3,-21,29,-15,2,0,32,-7,-20,-10,-55,-43,-65,-9,-24,39,57,-27,-22,-5,-3, 
};
const TfArray<4, int> tensor_dimension18 = { 4, { 8,1,1,48 } };
const TfArray<8, float> quant18_scale = { 8, { 0.019903469830751419, 0.028072930872440338, 0.060459908097982407, 0.065944403409957886, 0.03399522602558136, 0.02492680586874485, 0.031161656603217125, 0.040482845157384872, } };
const TfArray<8, int> quant18_zero = { 8, { 0,0,0,0,0,0,0,0 } };
const TfLiteAffineQuantization quant18 = { (TfLiteFloatArray*)&quant18_scale, (TfLiteIntArray*)&quant18_zero, 0 };
const ALIGN(16) int32_t tensor_data19[8] = { -40876, 25712, -13019, -7408, 21146, 10, 31754, 43158, };
const TfArray<1, int> tensor_dimension19 = { 1, { 8 } };
const TfArray<8, float> quant19_scale = { 8, { 0.00046831695362925529, 0.00066053954651579261, 0.0014225861523300409, 0.0015516330022364855, 0.00079988769721239805, 0.00058651308063417673, 0.00073321547824889421, 0.0009525375789962709, } };
const TfArray<8, int> quant19_zero = { 8, { 0,0,0,0,0,0,0,0 } };
const TfLiteAffineQuantization quant19 = { (TfLiteFloatArray*)&quant19_scale, (TfLiteIntArray*)&quant19_zero, 0 };
const ALIGN(16) int8_t tensor_data20[48*1*1*8] = { 
  /* [0][0][][] */ -127,3,3,72,-34,38,29,-26, 
  /* [1][0][][] */ 31,66,40,19,14,-44,108,127, 
  /* [2][0][][] */ -44,-8,0,0,-127,-8,10,9, 
  /* [3][0][][] */ 90,-12,-16,-115,-127,21,29,-15, 
  /* [4][0][][] */ -127,29,-33,-3,52,-23,50,27, 
  /* [5][0][][] */ -95,-28,16,-4,-127,2,11,90, 
  /* [6][0][][] */ -33,-127,18,-16,9,-13,17,58, 
  /* [7][0][][] */ -70,-8,3,109,127,-30,-29,12, 
  /* [8][0][][] */ 79,11,4,-127,-1,-28,-49,-33, 
  /* [9][0][][] */ -13,-127,-9,-4,3,80,-42,99, 
  /* [10][0][][] */ -96,-2,2,18,-127,70,63,-18, 
  /* [11][0][][] */ 111,11,43,19,-61,-43,-35,-127, 
  /* [12][0][][] */ 1,16,44,-9,11,-82,127,62, 
  /* [13][0][][] */ 81,-14,10,-24,125,127,116,-56, 
  /* [14][0][][] */ 127,52,-16,28,-92,-22,-22,-11, 
  /* [15][0][][] */ -14,-127,12,-11,2,9,13,39, 
  /* [16][0][][] */ -34,-13,1,-3,-127,10,8,-9, 
  /* [17][0][][] */ -30,97,-111,5,15,-127,112,-82, 
  /* [18][0][][] */ 127,-26,-40,12,-59,30,9,100, 
  /* [19][0][][] */ 127,-53,-8,-2,46,3,33,4, 
  /* [20][0][][] */ 127,23,-22,109,-4,28,5,-50, 
  /* [21][0][][] */ 4,28,-56,8,-32,92,-127,-87, 
  /* [22][0][][] */ -127,26,50,0,-47,14,-73,-39, 
  /* [23][0][][] */ -42,-57,9,22,-127,66,80,-22, 
  /* [24][0][][] */ 127,-4,-7,0,-83,-10,5,8, 
  /* [25][0][][] */ 25,-13,0,-27,127,51,50,-36, 
  /* [26][0][][] */ -3,-109,-1,-33,0,-127,85,-51, 
  /* [27][0][][] */ -15,-127,27,-14,-2,-53,30,-13, 
  /* [28][0][][] */ -88,34,-11,8,-16,-43,127,91, 
  /* [29][0][][] */ -9,45,17,7,1,36,-98,-127, 
  /* [30][0][][] */ 127,-16,8,12,-74,5,-50,-21, 
  /* [31][0][][] */ 6,-13,63,-11,12,-108,127,53, 
  /* [32][0][][] */ -77,29,6,4,-127,-108,-95,53, 
  /* [33][0][][] */ -29,11,-1,25,-127,-59,-43,23, 
  /* [34][0][][] */ 13,-127,57,-10,-12,96,-80,60, 
  /* [35][0][][] */ -22,-49,-127,-8,-3,-62,41,-52, 
  /* [36][0][][] */ 5,127,63,12,-9,8,-19,-41, 
  /* [37][0][][] */ -127,29,35,-14,59,-30,-5,-100, 
  /* [38][0][][] */ -127,-13,-43,-8,42,17,40,107, 
  /* [39][0][][] */ -3,-36,77,0,18,-67,127,88, 
  /* [40][0][][] */ -38,-22,-13,-36,-127,111,126,-28, 
  /* [41][0][][] */ -127,53,19,-77,-95,-103,-91,49, 
  /* [42][0][][] */ -45,-127,-99,-9,-6,68,-118,-85, 
  /* [43][0][][] */ -71,2,-28,-127,99,55,77,15, 
  /* [44][0][][] */ 127,-7,26,-82,25,-40,-6,47, 
  /* [45][0][][] */ -16,-127,-14,-11,-8,-78,80,2, 
  /* [46][0][][] */ 107,-4,1,-24,127,-38,-24,4, 
  /* [47][0][][] */ 127,3,8,109,-1,18,10,-47, 
};
const TfArray<4, int> tensor_dimension20 = { 4, { 48,1,1,8 } };
const TfArray<48, float> quant20_scale = { 48, { 0.00070602260529994965, 0.0013630654430016875, 0.0005148873315192759, 0.0005617714487016201, 0.00041889419662766159, 0.00040619674837216735, 0.00074530206620693207, 0.00040860340232029557, 0.00060902239056304097, 0.0015936469426378608, 0.001763039967045188, 0.00047939206706359982, 0.00066777237225323915, 0.0012451346265152097, 0.00026450460427440703, 0.00084211968351155519, 0.00048871134640648961, 0.00090194476069882512, 0.00051479652756825089, 0.00065179087687283754, 0.00063004205003380775, 0.00036568177165463567, 0.00080748286563903093, 0.00027100130682811141, 0.00054763135267421603, 0.00055762141710147262, 0.0035531104076653719, 0.00089196080807596445, 0.00034738646354526281, 0.00073156802682206035, 0.00049738324014469981, 0.00038167810998857021, 0.0013405118370428681, 0.00049034523544833064, 0.0018420738633722067, 0.0010546277044340968, 0.001442698179744184, 0.00073686952237039804, 0.00038488954305648804, 0.00058585428632795811, 0.00029328966047614813, 0.00046862559975124896, 0.00059036357561126351, 0.00050285924226045609, 0.0038172986824065447, 0.00068272062344476581, 0.00062252144562080503, 0.0020403950475156307, } };
const TfArray<48, int> quant20_zero = { 48, { 0,0,0,0,0,0,0,0,0,0,0,0,0,0,0,0,0,0,0,0,0,0,0,0,0,0,0,0,0,0,0,0,0,0,0,0,0,0,0,0,0,0,0,0,0,0,0,0 } };
const TfLiteAffineQuantization quant20 = { (TfLiteFloatArray*)&quant20_scale, (TfLiteIntArray*)&quant20_zero, 0 };
const ALIGN(16) int32_t tensor_data21[48] = { 399, 719, 1518, 363, 7596, 14077, 2088, -66, -706, -392, 819, 870, 2669, 901, 19308, 2096, 1558, -608, -198, 1981, -1318, 10102, 6516, 8331, 4153, 263, 2781, 2987, 7048, -477, 7497, 4429, 400, -152, 2876, 2460, -1366, 166, -557, 4492, 949, -442, -696, 24, 724, 2906, 529, 824, };
const TfArray<1, int> tensor_dimension21 = { 1, { 48 } };
const TfArray<48, float> quant21_scale = { 48, { 0.00049599644262343645, 0.00095758354291319847, 0.00036171969259157777, 0.00039465681766159832, 0.00029428239213302732, 0.00028536215540952981, 0.00052359112305566669, 0.00028705288423225284, 0.00042785165715031326, 0.0011195720871910453, 0.0012385743902996182, 0.00033678350155241787, 0.00046912481775507331, 0.00087473454186692834, 0.0001858203177107498, 0.00059160764794796705, 0.00034333049552515149, 0.0006336360820569098, 0.00036165589699521661, 0.0004578974621836096, 0.00044261841685511172, 0.0002568995114415884, 0.00056727451737970114, 0.00019038439495489001, 0.00038472309825010598, 0.00039174134144559503, 0.0024961384478956461, 0.00062662211712449789, 0.00024404664873145521, 0.00051394267939031124, 0.00034942268393933773, 0.00026813728618435562, 0.00094173912657424808, 0.00034447832149453461, 0.0012940975138917565, 0.00074089918052777648, 0.0010135272750630975, 0.00051766709657385945, 0.00027039338601753116, 0.00041157554369419813, 0.00020604244491551071, 0.00032921982347033918, 0.00041474343743175268, 0.0003532696864567697, 0.0026817363686859608, 0.00047962629469111562, 0.00043733502388931811, 0.0014334224397316575, } };
const TfArray<48, int> quant21_zero = { 48, { 0,0,0,0,0,0,0,0,0,0,0,0,0,0,0,0,0,0,0,0,0,0,0,0,0,0,0,0,0,0,0,0,0,0,0,0,0,0,0,0,0,0,0,0,0,0,0,0 } };
const TfLiteAffineQuantization quant21 = { (TfLiteFloatArray*)&quant21_scale, (TfLiteIntArray*)&quant21_zero, 0 };
const ALIGN(16) int8_t tensor_data22[1*3*3*48] = { 
  /* [0][0][][] */ 70,-91,97,71,54,-34,107,-62,61,-88,-80,48,51,-43,-72,-89,102,79,48,78,66,-74,-83,52,-33,-41,-65,-64,-67,62,-63,-114,-12,42,68,63,-66,54,-50,-23,52,-73,58,61,-93,12,74,-30, 82,-96,127,85,-77,-68,-57,-83,96,-102,-64,74,79,-111,-96,90,-38,96,83,127,84,-115,51,72,-53,-78,-68,-80,56,79,-29,-127,-87,79,80,82,-82,83,-85,-17,77,-94,83,86,-72,-127,92,-103, 34,-45,69,37,17,-40,-48,-38,41,-31,5,34,29,-79,-56,-2,-54,37,34,70,33,-54,31,26,-29,-45,-46,-23,30,30,88,-89,-85,43,35,33,-29,38,-37,-10,41,-40,35,42,-6,-8,37,-71, 
  /* [0][1][][] */ 92,-110,-41,94,56,-81,127,-89,87,-113,-71,81,83,-110,-14,-127,127,109,74,-39,84,106,-127,73,73,-75,-95,-98,-127,86,-70,-7,-90,71,106,96,-85,79,-80,90,84,-102,87,89,-89,109,93,-90, 127,-127,-64,127,-127,-127,-92,-127,127,-127,-127,127,127,-127,-23,96,-66,127,127,-51,127,127,67,127,127,-127,-127,-127,53,127,-28,17,-127,127,127,127,-127,127,-127,127,127,-127,127,127,-127,-10,127,-127, 62,-76,-33,66,36,-61,-49,-61,56,-43,-60,59,48,-53,-17,9,-64,51,57,-30,57,65,50,65,66,-65,-63,-46,35,55,127,15,-63,69,48,48,-48,59,-59,57,60,-58,53,60,-60,-67,58,-58, 
  /* [0][2][][] */ 45,-50,-45,49,28,-51,63,-42,41,-73,-4,39,55,-72,82,-79,73,51,34,-30,26,-13,-76,30,-25,-44,-48,-48,-74,32,-41,92,-75,36,48,42,-27,37,-43,-86,48,-52,40,43,-23,16,40,-73, 74,-73,-47,80,-56,-63,-72,-66,51,-78,-67,60,73,-49,127,31,-46,60,60,-42,55,-18,42,68,-50,-66,-77,-61,32,62,-22,119,-55,65,57,57,-50,61,-68,-106,69,-69,59,61,-87,50,62,-52, 42,-39,-26,46,29,-19,-17,-33,14,-26,-53,28,31,4,67,23,-37,22,28,-31,28,0,40,42,-24,-29,-49,-24,33,33,62,67,1,33,15,22,-22,30,-30,-54,28,-33,25,28,-61,9,30,-4, 
};
const TfArray<4, int> tensor_dimension22 = { 4, { 1,3,3,48 } };
const TfArray<48, float> quant22_scale = { 48, { 0.0028423357289284468, 0.0019215944921597838, 0.0099585400894284248, 0.0023670282680541277, 0.0065035433508455753, 0.0040743965655565262, 0.004929455928504467, 0.0041511557064950466, 0.0038475415203720331, 0.0017816581530496478, 0.0023452350869774818, 0.0061594871804118156, 0.0021235095337033272, 0.0017432118766009808, 0.0062170699238777161, 0.0068916040472686291, 0.011022591963410378, 0.0029254253022372723, 0.0041534658521413803, 0.0093065463006496429, 0.0050970036536455154, 0.0083133615553379059, 0.0035868266131728888, 0.0075728902593255043, 0.004275233019143343, 0.0045405528508126736, 0.001407835865393281, 0.0033378598745912313, 0.0050328015349805355, 0.0061873523518443108, 0.0051354141905903816, 0.006077401340007782, 0.0022482157219201326, 0.0061645549722015858, 0.0014277542941272259, 0.0024189050309360027, 0.0083355410024523735, 0.004801848903298378, 0.0032858909107744694, 0.0035781606566160917, 0.0060880603268742561, 0.0033568807411938906, 0.0047704833559691906, 0.0033011946361511946, 0.0013924093218520284, 0.0067955167032778263, 0.0036923475563526154, 0.0016683267895132303, } };
const TfArray<48, int> quant22_zero = { 48, { 0,0,0,0,0,0,0,0,0,0,0,0,0,0,0,0,0,0,0,0,0,0,0,0,0,0,0,0,0,0,0,0,0,0,0,0,0,0,0,0,0,0,0,0,0,0,0,0 } };
const TfLiteAffineQuantization quant22 = { (TfLiteFloatArray*)&quant22_scale, (TfLiteIntArray*)&quant22_zero, 3 };
const ALIGN(16) int32_t tensor_data23[48] = { 8039, 25525, -565, 42330, 4170, 113544, -3559, 56357, 4828, 26300, 25959, -1898, -2314, 32885, -417, -2523, -53, 868, 4855, -1912, 1100, -2479, 793, -24537, -5497, 41863, 133014, 94995, 2751, 2709, -2747, -194, 22933, 57, 18585, -1521, 28815, 1251, 69391, 1293, -1393, 71772, -60, 6714, 45613, -831, 4792, 45589, };
const TfArray<1, int> tensor_dimension23 = { 1, { 48 } };
const TfArray<48, float> quant23_scale = { 48, { 6.6878492361865938e-05, 4.5213990233605728e-05, 0.00023431859153788537, 5.569478526012972e-05, 0.0001530245499452576, 9.5868155767675489e-05, 0.00011598719720495865, 9.7674252174329013e-05, 9.0530389570631087e-05, 4.1921368392650038e-05, 5.5182004871312529e-05, 0.00014492911577690393, 4.9964932259172201e-05, 4.101675222045742e-05, 0.00014628400094807148, 0.00016215539653785527, 0.00025935511803254485, 6.883353489683941e-05, 9.7728610853664577e-05, 0.00021897756960242987, 0.0001199295002152212, 0.00019560851796995848, 8.4395920566748828e-05, 0.00017818565538618714, 0.0001005937228910625, 0.00010683653817977756, 3.3125550544355065e-05, 7.8537879744544625e-05, 0.00011841885861940682, 0.00014558476686943322, 0.00012083327601430938, 0.00014299768372438848, 5.2899194997735322e-05, 0.00014504835417028517, 3.3594220440136269e-05, 5.691541446140036e-05, 0.00019613037875387818, 0.00011298467870801687, 7.7315082307904959e-05, 8.4192019130568951e-05, 0.00014324848598334938, 7.8985431173350662e-05, 0.00011224667105125263, 7.7675169450230896e-05, 3.2762571208877489e-05, 0.00015989450912456959, 8.687876834301278e-05, 3.9254748116945848e-05, } };
const TfArray<48, int> quant23_zero = { 48, { 0,0,0,0,0,0,0,0,0,0,0,0,0,0,0,0,0,0,0,0,0,0,0,0,0,0,0,0,0,0,0,0,0,0,0,0,0,0,0,0,0,0,0,0,0,0,0,0 } };
const TfLiteAffineQuantization quant23 = { (TfLiteFloatArray*)&quant23_scale, (TfLiteIntArray*)&quant23_zero, 0 };
const ALIGN(16) int8_t tensor_data24[16*1*1*48] = { 
  /* [0][0][][] */ -19,1,-25,13,25,1,3,110,-50,20,44,-4,15,-15,-15,11,13,-14,-11,-3,63,-3,19,127,-14,91,-5,-11,24,-15,25,-35,-15,50,16,-52,20,46,21,-17,-112,-23,19,41,34,24,-125,-50, 
  /* [1][0][][] */ -40,-14,16,16,-32,13,1,60,-57,-32,7,-45,-25,-16,-3,-8,-29,122,-13,19,6,7,-28,-17,24,-42,17,27,-29,-87,-33,18,-18,-6,30,-5,-4,-43,5,13,-19,-29,127,10,8,-5,22,-10, 
  /* [2][0][][] */ -22,-6,-14,-34,-1,-64,7,-19,2,10,11,28,13,17,-15,8,-5,-23,-20,-16,-1,1,-3,-127,-10,77,-13,6,-2,-16,-6,-8,-9,58,12,-1,18,9,27,15,-35,4,-16,-8,-1,-11,13,1, 
  /* [3][0][][] */ -6,30,-1,-28,0,-1,5,-5,-17,-5,-1,39,-127,3,-5,-1,1,5,-15,3,-28,11,8,17,-6,-12,5,23,-7,20,5,18,2,4,17,20,-12,27,40,3,13,4,26,-27,9,-3,5,17, 
  /* [4][0][][] */ 35,-30,7,10,17,28,22,-23,-33,8,-15,-18,0,13,0,12,20,-8,-83,6,-7,10,13,70,1,-25,6,49,9,-72,18,7,11,-32,29,-127,14,35,-1,18,-19,17,9,-23,-8,-21,5,5, 
  /* [5][0][][] */ 28,4,-20,58,-3,-5,5,26,5,-3,40,12,-1,55,0,3,-26,15,29,0,13,6,0,-30,3,-48,3,-18,-3,-4,-1,5,62,-127,10,30,-16,-15,17,11,-96,58,21,-6,-3,-5,-98,-12, 
  /* [6][0][][] */ 23,-1,3,4,-16,-4,2,-12,-5,8,0,2,-18,9,2,4,-1,-13,127,8,4,7,15,-35,3,4,24,-11,-13,-1,-6,7,1,-11,29,-38,2,-46,72,13,-1,-6,-8,5,-10,2,5,-11, 
  /* [7][0][][] */ -48,-11,-13,33,-13,81,-7,48,-4,32,-11,127,75,0,-12,-7,-8,-28,-10,-21,-31,-4,-20,66,4,-34,-51,-28,-15,-9,-16,-13,1,-2,-19,2,10,-63,100,-1,21,30,-56,-63,19,-11,-1,5, 
  /* [8][0][][] */ -45,-54,-1,4,-8,-2,3,28,-3,-73,1,43,57,3,11,10,-10,66,-29,12,-49,23,-2,-10,-4,-1,1,41,-7,125,-9,28,-7,8,-23,-127,-121,75,29,36,25,-11,114,-18,6,35,22,29, 
  /* [9][0][][] */ -24,3,-9,36,20,-33,-5,-1,58,-40,14,58,-51,7,6,6,-7,19,-30,-25,51,2,-9,-16,6,11,47,-24,14,8,8,1,-5,22,72,-101,-13,-127,-93,12,-27,24,41,9,-3,11,-14,-43, 
  /* [10][0][][] */ -25,-7,-37,-127,48,92,8,-9,4,37,27,14,46,-49,-35,18,31,-45,52,-32,31,-18,37,49,-52,-108,8,-30,48,37,42,-47,-26,-86,22,-9,14,-45,10,-39,-38,-61,-14,8,11,15,20,-40, 
  /* [11][0][][] */ 1,46,-10,57,30,-59,-81,-19,2,60,-15,-3,-3,51,-1,-69,23,45,8,-7,-50,-104,13,-6,7,-43,15,-21,60,-37,20,-75,48,-13,-39,-91,88,30,6,-127,-2,55,97,-67,-8,-56,37,34, 
  /* [12][0][][] */ 124,-2,-20,14,3,24,1,103,22,-12,-54,-20,-2,11,-11,-6,-7,4,-4,-7,4,0,2,16,1,15,-3,7,-6,12,-5,1,3,-65,-11,6,-17,-14,-26,-4,-16,-76,6,-127,-52,-16,80,5, 
  /* [13][0][][] */ 10,1,-3,7,7,-12,3,0,0,7,6,21,-3,3,6,2,7,1,11,4,12,-13,11,-2,2,1,18,127,10,-5,8,-2,5,1,-39,21,8,-7,4,-13,-12,-4,-5,8,-4,-1,-8,-15, 
  /* [14][0][][] */ 66,-30,53,-70,58,27,41,-103,-57,-61,-1,122,-68,-8,68,14,58,34,-50,66,23,11,76,-15,22,56,-37,-122,32,-41,66,49,-2,71,-127,-49,-37,47,88,6,-35,7,47,3,-8,5,18,-27, 
  /* [15][0][][] */ -12,-51,-78,-40,60,29,76,-50,-13,28,-14,-40,83,25,-109,59,60,49,78,-93,-114,-32,55,-13,-103,50,31,63,57,46,47,-58,30,51,105,127,-13,-120,-4,-44,96,73,117,-59,-4,-41,-22,73, 
};
const TfArray<4, int> tensor_dimension24 = { 4, { 16,1,1,48 } };
const TfArray<16, float> quant24_scale = { 16, { 0.02974470891058445, 0.038746453821659088, 0.057537958025932312, 0.046996921300888062, 0.035857543349266052, 0.046769037842750549, 0.040256526321172714, 0.024222051724791527, 0.023864958435297012, 0.037372440099716187, 0.032528705894947052, 0.02071903832256794, 0.056394543498754501, 0.066651932895183563, 0.014125864952802658, 0.027165487408638, } };
const TfArray<16, int> quant24_zero = { 16, { 0,0,0,0,0,0,0,0,0,0,0,0,0,0,0,0 } };
const TfLiteAffineQuantization quant24 = { (TfLiteFloatArray*)&quant24_scale, (TfLiteIntArray*)&quant24_zero, 0 };
const ALIGN(16) int32_t tensor_data25[16] = { -42070, 1920, 1158, -7972, 475, -8590, -11340, -45155, 7478, 24450, 31222, -6663, -3791, -21217, 42369, -49731, };
const TfArray<1, int> tensor_dimension25 = { 1, { 16 } };
const TfArray<16, float> quant25_scale = { 16, { 0.00069987552706152201, 0.00091168127255514264, 0.0013538342900574207, 0.0011058099335059524, 0.00084370689000934362, 0.0011004479601979256, 0.00094721239292994142, 0.00056993064936250448, 0.00056152843171730638, 0.00087935157353058457, 0.00076538132270798087, 0.00048750679707154632, 0.0013269304763525724, 0.0015682808589190245, 0.00033237331081181765, 0.00063918792875483632, } };
const TfArray<16, int> quant25_zero = { 16, { 0,0,0,0,0,0,0,0,0,0,0,0,0,0,0,0 } };
const TfLiteAffineQuantization quant25 = { (TfLiteFloatArray*)&quant25_scale, (TfLiteIntArray*)&quant25_zero, 0 };
const ALIGN(16) int8_t tensor_data26[96*1*1*16] = { 
  /* [0][0][][] */ 51,-10,123,112,84,-37,48,-16,127,-27,-69,-63,37,93,-61,-77, 
  /* [1][0][][] */ 45,84,-1,-7,84,-24,18,37,50,48,-29,127,26,-21,79,-68, 
  /* [2][0][][] */ 10,-56,-2,15,-63,46,-86,86,-71,-97,1,94,-20,-127,104,-103, 
  /* [3][0][][] */ 111,127,-7,27,-114,-5,-50,-22,-10,-2,105,-62,-49,87,-45,-25, 
  /* [4][0][][] */ 2,-13,24,12,-27,29,-17,55,-67,-40,-2,-3,-2,-127,18,-3, 
  /* [5][0][][] */ 101,-41,-20,-3,-19,-108,-18,20,-9,13,-127,-25,17,-1,0,23, 
  /* [6][0][][] */ -112,-56,-21,85,-34,-15,-34,19,-127,-78,-56,-38,25,40,-4,101, 
  /* [7][0][][] */ -20,12,-86,46,50,-127,-39,32,9,-47,31,2,-22,15,-36,16, 
  /* [8][0][][] */ 39,-68,-4,-5,2,31,-62,-61,-3,12,-77,-2,-127,6,-1,30, 
  /* [9][0][][] */ 6,-42,92,127,-7,36,-11,-91,124,-89,-7,-37,-19,49,-71,16, 
  /* [10][0][][] */ -102,-69,-10,-24,105,40,41,74,127,-52,-65,25,98,-98,-91,78, 
  /* [11][0][][] */ 42,-9,-127,25,53,31,-19,44,-9,-29,-16,-7,-4,25,-41,-4, 
  /* [12][0][][] */ 118,-44,21,14,3,-46,-48,-13,44,6,-127,-14,-42,-5,-18,49, 
  /* [13][0][][] */ 14,-100,22,-78,83,34,-113,-127,32,-69,39,16,8,-21,19,20, 
  /* [14][0][][] */ -57,37,-83,-46,78,-127,68,-59,60,51,-18,-121,22,116,-22,19, 
  /* [15][0][][] */ 22,6,56,40,50,-55,-45,-20,22,-62,-73,-12,-127,-54,-10,53, 
  /* [16][0][][] */ -121,40,5,30,-2,127,38,86,-8,65,125,8,-32,35,0,-49, 
  /* [17][0][][] */ 1,-21,-32,-34,-27,13,74,94,-17,127,-19,14,5,91,53,2, 
  /* [18][0][][] */ -8,121,-65,-8,-8,-3,46,-94,42,127,-56,111,-8,-68,53,-119, 
  /* [19][0][][] */ 5,-15,33,14,-1,37,4,17,10,9,-54,-13,-127,-3,-13,31, 
  /* [20][0][][] */ 91,-59,-19,-93,-24,23,14,-98,-63,17,-127,-29,15,-2,66,8, 
  /* [21][0][][] */ 32,-18,127,38,-40,57,16,-8,2,36,-14,-22,-19,69,13,-12, 
  /* [22][0][][] */ 30,27,10,12,-18,-3,33,127,16,5,2,28,6,27,19,28, 
  /* [23][0][][] */ -15,14,-98,11,22,-127,0,30,-5,-36,-9,0,-56,1,-2,33, 
  /* [24][0][][] */ 46,-72,2,-66,59,-10,-20,-6,41,37,56,100,-46,97,127,47, 
  /* [25][0][][] */ -127,-107,-45,2,15,-2,3,-44,-71,-2,-95,16,29,36,27,61, 
  /* [26][0][][] */ 5,0,45,-15,-11,13,-33,67,-72,-63,-16,16,15,-127,44,-4, 
  /* [27][0][][] */ -86,46,-48,38,38,-19,-17,24,43,-50,127,37,-24,7,-5,-42, 
  /* [28][0][][] */ -24,-8,24,33,-4,2,7,72,28,9,-20,-14,-127,-12,-5,36, 
  /* [29][0][][] */ -7,68,44,-34,41,-12,29,-21,-127,35,-34,8,5,38,-93,9, 
  /* [30][0][][] */ 2,-10,-127,-16,28,-35,-13,16,-10,-15,2,-6,-45,-15,14,15, 
  /* [31][0][][] */ 127,-27,-106,13,57,5,-40,64,-8,-8,-78,-35,11,-6,-84,22, 
  /* [32][0][][] */ -121,20,29,54,31,100,18,45,29,2,127,8,-41,32,-17,-25, 
  /* [33][0][][] */ 1,-9,127,-16,-63,29,14,-32,-1,11,-10,22,-3,24,34,16, 
  /* [34][0][][] */ 45,-3,-55,-127,44,-29,49,28,-46,-81,-52,-100,17,16,13,21, 
  /* [35][0][][] */ -15,-32,39,45,61,-26,20,-30,-115,40,7,29,-25,127,-45,-35, 
  /* [36][0][][] */ -127,48,-41,-13,-31,32,44,78,-17,42,127,-32,-5,8,27,-11, 
  /* [37][0][][] */ -39,19,127,-26,-75,-61,29,-26,21,21,-3,7,4,-60,57,11, 
  /* [38][0][][] */ 9,-6,-3,43,34,-34,-53,13,-17,-11,75,-8,127,35,-18,1, 
  /* [39][0][][] */ -74,-43,-50,-79,-67,-127,65,105,-61,-19,7,-86,-23,41,90,87, 
  /* [40][0][][] */ 64,-6,-18,-13,-12,86,-10,11,18,-1,18,-5,127,12,-24,-20, 
  /* [41][0][][] */ 8,-17,-47,-127,29,-19,-24,-68,5,-51,3,-40,4,-17,-22,37, 
  /* [42][0][][] */ 41,60,-1,93,-127,13,-96,7,-84,-65,78,-90,-18,121,-43,26, 
  /* [43][0][][] */ 10,117,-29,127,17,28,48,-69,-36,88,-11,25,6,-41,46,31, 
  /* [44][0][][] */ -15,-34,-127,16,48,71,-49,47,-18,-17,41,-27,-2,-30,-47,5, 
  /* [45][0][][] */ 0,38,-11,-127,-30,8,72,2,-18,29,-41,23,13,-126,40,-54, 
  /* [46][0][][] */ 5,31,52,-16,10,8,-44,51,23,-43,-31,2,11,127,45,-8, 
  /* [47][0][][] */ 15,-19,33,-26,-34,26,-71,59,6,-33,20,43,6,-127,51,6, 
  /* [48][0][][] */ 0,-9,7,-127,-13,-15,-5,8,12,-28,12,-22,7,46,-7,59, 
  /* [49][0][][] */ 35,-38,-13,120,80,5,-2,48,-49,12,31,29,-7,37,127,-6, 
  /* [50][0][][] */ -23,-15,75,-15,1,127,-13,-45,49,-20,119,23,110,14,-19,-53, 
  /* [51][0][][] */ 19,49,11,6,20,3,-30,20,33,-6,10,127,4,21,22,-43, 
  /* [52][0][][] */ -22,55,116,8,27,-41,13,-55,-35,8,15,23,-4,92,-127,-27, 
  /* [53][0][][] */ -3,-31,-42,-127,-38,2,16,-39,-21,40,25,3,21,-24,47,14, 
  /* [54][0][][] */ 7,-15,-34,-38,20,34,-34,5,45,-15,14,-19,-21,127,17,39, 
  /* [55][0][][] */ -8,-31,-50,-15,16,-54,-13,-127,3,-111,-25,-5,-43,-88,-61,-20, 
  /* [56][0][][] */ 40,42,31,60,0,-23,17,127,18,-22,1,-44,70,-8,-41,30, 
  /* [57][0][][] */ 66,-33,127,-21,-57,-55,-2,-28,26,17,-98,28,49,-38,46,11, 
  /* [58][0][][] */ 102,109,29,111,-127,-15,2,64,-19,19,94,-27,-56,-50,-30,-72, 
  /* [59][0][][] */ 126,-51,-9,-2,-31,-19,5,16,-23,33,-127,-19,17,-6,0,22, 
  /* [60][0][][] */ -127,39,-2,0,12,17,24,35,14,11,90,-1,-39,3,12,-18, 
  /* [61][0][][] */ -125,42,23,4,34,-30,-69,-52,127,-102,70,-8,62,-34,-99,-63, 
  /* [62][0][][] */ -10,-45,-127,64,57,91,3,97,28,-41,28,-20,-66,7,-98,3, 
  /* [63][0][][] */ -45,20,127,-44,-56,-54,24,-27,12,9,-4,16,-14,-46,70,12, 
  /* [64][0][][] */ 50,70,2,51,111,15,109,-127,-7,125,4,22,-22,-107,-27,43, 
  /* [65][0][][] */ 2,23,-9,-36,65,-1,19,-127,-30,-47,-26,-60,-2,-48,33,30, 
  /* [66][0][][] */ -127,-4,-21,2,-38,17,16,-42,-79,-33,-70,46,47,19,46,81, 
  /* [67][0][][] */ 6,-46,-2,127,24,-1,-25,47,38,24,-4,-2,-23,-30,-111,-17, 
  /* [68][0][][] */ 8,4,-15,127,-60,-13,5,-34,-55,26,23,-31,-27,-70,-23,-47, 
  /* [69][0][][] */ 117,90,23,127,60,-21,82,-111,17,117,15,52,3,-9,9,-3, 
  /* [70][0][][] */ 7,-40,-12,-113,124,-30,67,16,99,-25,92,-56,5,105,82,127, 
  /* [71][0][][] */ 10,55,-10,90,44,-127,-37,91,55,-80,14,12,18,-48,-44,38, 
  /* [72][0][][] */ -127,-70,-8,54,25,44,-28,30,-52,-34,-101,47,59,26,-6,96, 
  /* [73][0][][] */ -16,-30,-14,103,26,-25,-7,-20,85,11,3,9,18,127,-74,-61, 
  /* [74][0][][] */ 73,-25,8,-24,-49,-14,43,-17,-36,1,-115,27,-127,-17,40,50, 
  /* [75][0][][] */ -17,-25,-30,127,-37,4,7,-18,-62,28,-24,-40,-1,-47,-12,-24, 
  /* [76][0][][] */ -3,-7,-2,39,32,18,-11,-118,17,-127,15,24,-18,-24,35,-41, 
  /* [77][0][][] */ 127,-45,25,49,-46,-14,-43,-15,48,-4,-44,43,45,10,-46,37, 
  /* [78][0][][] */ -17,-5,49,0,7,8,-63,26,43,-12,-33,-54,-6,127,39,-24, 
  /* [79][0][][] */ 2,16,49,22,48,65,-53,-51,10,-49,73,-14,127,-23,-31,-43, 
  /* [80][0][][] */ -95,-77,-63,127,22,49,46,1,-103,32,-89,32,51,-66,-29,38, 
  /* [81][0][][] */ 67,3,-70,35,127,95,-25,-39,-15,-99,-17,-80,-30,-16,-103,34, 
  /* [82][0][][] */ 111,88,-3,50,-127,-34,-83,-40,-58,-4,103,-67,-58,81,10,-44, 
  /* [83][0][][] */ 127,40,10,-29,6,-15,-14,26,35,16,94,-39,-60,-33,-23,-84, 
  /* [84][0][][] */ 36,-60,-58,-25,51,16,-13,-127,-25,-65,20,23,-16,-2,-7,-15, 
  /* [85][0][][] */ -18,-1,-32,-34,1,13,74,95,-8,127,-7,-36,36,70,57,-31, 
  /* [86][0][][] */ 88,-32,2,-7,0,-40,-11,-22,0,-8,-127,3,18,16,-7,18, 
  /* [87][0][][] */ -26,48,29,-38,-20,104,-13,69,-1,-21,43,5,14,-127,12,14, 
  /* [88][0][][] */ 5,-28,-114,-44,54,-19,-34,-127,13,-19,-27,-41,-29,6,34,-13, 
  /* [89][0][][] */ 9,4,21,-127,31,7,-46,70,56,-73,13,12,-29,23,33,41, 
  /* [90][0][][] */ -35,-14,-33,51,62,-6,104,-85,70,127,-33,33,16,5,-11,-16, 
  /* [91][0][][] */ 51,-18,-32,-8,-3,-127,-8,0,-3,-1,-57,-13,33,-6,0,41, 
  /* [92][0][][] */ 26,-28,127,73,15,10,-9,32,-17,41,-55,-3,19,99,23,-4, 
  /* [93][0][][] */ 127,-24,-41,-26,-31,-70,2,26,-44,22,-124,-13,-12,6,1,63, 
  /* [94][0][][] */ 10,-13,53,75,123,-28,-16,66,1,-22,4,64,-13,127,-31,-75, 
  /* [95][0][][] */ -122,51,42,36,10,47,11,1,9,-1,127,4,-22,30,-9,-26, 
};
const TfArray<4, int> tensor_dimension26 = { 4, { 96,1,1,16 } };
const TfArray<96, float> quant26_scale = { 96, { 0.00068148691207170486, 0.0011429338483139873, 0.0005344833480194211, 0.0042433370836079121, 0.0010594803607091308, 0.00052464153850451112, 0.00089399062562733889, 0.0016462524654343724, 0.00097809638828039169, 0.00045908719766885042, 0.00084525387501344085, 0.001383246504701674, 0.0012740684906020761, 0.00039489465416409075, 0.00074542075162753463, 0.0010429220274090767, 0.00054199987789615989, 0.00050200667465105653, 0.00072976609226316214, 0.0021222548093646765, 0.00093686656327918172, 0.00064029358327388763, 0.00094631948741152883, 0.00073142955079674721, 0.00062563852407038212, 0.0013714204542338848, 0.0010204780846834183, 0.00050561240641400218, 0.0023790039122104645, 0.00098706304561346769, 0.00085142254829406738, 0.00053984945407137275, 0.00031876596040092409, 0.0019824283663183451, 0.00076593749690800905, 0.0012970491079613566, 0.00039218663005158305, 0.0009761410765349865, 0.0014280762989073992, 0.000593349221162498, 0.0019081643549725413, 0.00047576316865161061, 0.00064264086540788412, 0.00057020457461476326, 0.0011009324807673693, 0.00077511317795142531, 0.00068284088047221303, 0.001114536658860743, 0.0010773077374324203, 0.00079688848927617073, 0.0012138484744355083, 0.0033568786457180977, 0.0003939906891901046, 0.00075092841871082783, 0.0010197795927524567, 0.00029268278740346432, 0.0010409028036519885, 0.00076202035415917635, 0.00075587513856589794, 0.0011025049025192857, 0.00040768779581412673, 0.00053857156308367848, 0.0011378944618627429, 0.0010884059593081474, 0.00060125597519800067, 0.00083293148782104254, 0.0014585949247702956, 0.0013819263549521565, 0.00039397916407324374, 0.00053686485625803471, 0.00055268855066969991, 0.0011046727886423469, 0.0010244474979117513, 0.0014110930496826768, 0.00065122131491079926, 0.0010748266940936446, 0.00036003722925670445, 0.0010280809365212917, 0.00052508863154798746, 0.0012935459380969405, 0.0006308366428129375, 0.0012078469153493643, 0.00088787276763468981, 0.0021028839983046055, 0.00074834580300375819, 0.00087849877309054136, 0.0007270239875651896, 0.0010524840326979756, 0.00039129698416218162, 0.0014760756166651845, 0.00072606321191415191, 0.0012157072778791189, 0.00048362644156441092, 0.00036098272539675236, 0.00086937908781692386, 0.00064304802799597383, } };
const TfArray<96, int> quant26_zero = { 96, { 0,0,0,0,0,0,0,0,0,0,0,0,0,0,0,0,0,0,0,0,0,0,0,0,0,0,0,0,0,0,0,0,0,0,0,0,0,0,0,0,0,0,0,0,0,0,0,0,0,0,0,0,0,0,0,0,0,0,0,0,0,0,0,0,0,0,0,0,0,0,0,0,0,0,0,0,0,0,0,0,0,0,0,0,0,0,0,0,0,0,0,0,0,0,0,0 } };
const TfLiteAffineQuantization quant26 = { (TfLiteFloatArray*)&quant26_scale, (TfLiteIntArray*)&quant26_zero, 0 };
const ALIGN(16) int32_t tensor_data27[96] = { 11733, 757, 7668, -409, 4701, 5393, 10650, 6578, -1401, 12011, 5110, 1777, 6634, 37377, -430, -2057, 12755, 14339, 1832, -210, -896, 11976, 4941, 3309, 8695, 4658, 4296, 5804, 43, 15, 5229, 10759, 19129, 1689, 6649, -710, 17870, 8322, 999, 5070, 797, 12119, 10157, 3920, 3114, 12933, 12875, 4001, 4509, 3359, 339, -585, 20930, 6302, 6999, 19695, -355, 6943, 3239, 4521, 12756, 8127, 2823, 7805, 5443, 4186, 4090, -786, 21288, 6662, 10961, -1318, -1121, 2803, 1855, 3702, 19925, 13461, 9901, -2893, 5450, -5269, -1306, 364, 6628, 5532, 7034, 3970, 13304, 3308, 6140, 4292, 13505, 23278, -10390, 15465, };
const TfArray<1, int> tensor_dimension27 = { 1, { 96 } };
const TfArray<96, float> quant27_scale = { 96, { 0.00022190315939951688, 0.00037215775228105485, 0.00017403642414137721, 0.0013816992286592722, 0.00034498394234105945, 0.00017083177226595581, 0.00029109782190062106, 0.00053604645654559135, 0.00031848400249145925, 0.00014948622265364975, 0.00027522834716364741, 0.0004504074458964169, 0.00041485732072032988, 0.00012858408445026726, 0.00024272105656564236, 0.00033959228312596679, 0.00017648392531555146, 0.00016346148913726211, 0.0002376236516283825, 0.00069104047724977136, 0.00030505890026688576, 0.00020848994608968496, 0.00030813695047982037, 0.00023816530301701277, 0.00020371802384033799, 0.00044655668898485601, 0.00033228416577912867, 0.00016463558131363243, 0.00077464216155931354, 0.00032140369876287878, 0.00027723694802261889, 0.0001757837162585929, 0.00010379535524407402, 0.00064551073592156172, 0.00024940163712017238, 0.00042234017746523023, 0.00012770231114700437, 0.00031784732709638774, 0.00046500476310029626, 0.00019320410501677543, 0.00062132917810231447, 0.00015491618250962347, 0.0002092542708851397, 0.00018566784274298698, 0.00035848142579197884, 0.00025238940725103021, 0.00022234403877519071, 0.00036291117430664599, 0.00035078881774097681, 0.0002594797988422215, 0.00039524870226159692, 0.0010930539574474096, 0.00012828974286094308, 0.00024451443459838629, 0.00033205674844793975, 9.5302253612317145e-05, 0.00033893479849211872, 0.00024812616175040603, 0.00024612518609501421, 0.00035899344948120415, 0.00013274974480737001, 0.00017536761879455298, 0.00037051684921607375, 0.00035440258216112852, 0.00019577867351472378, 0.00027121597668156028, 0.0004749421204905957, 0.00044997758232057095, 0.00012828598846681416, 0.00017481188115198165, 0.00017996433598455042, 0.00035969933378510177, 0.00033357669599354267, 0.00045947474427521229, 0.00021204819495324045, 0.0003499809536151588, 0.00011723394709406421, 0.00033475979580543935, 0.00017097734962590039, 0.00042119948193430901, 0.00020541061530821025, 0.00039329449646174908, 0.000289105752017349, 0.00068473303690552711, 0.00024367350852116942, 0.00028605342959053814, 0.00023673077521380037, 0.00034270584001205862, 0.00012741262617055327, 0.00048063410213217139, 0.00023641792358830571, 0.00039585397462360561, 0.00015747659199405462, 0.00011754181468859315, 0.00028308390756137669, 0.00020938683883287013, } };
const TfArray<96, int> quant27_zero = { 96, { 0,0,0,0,0,0,0,0,0,0,0,0,0,0,0,0,0,0,0,0,0,0,0,0,0,0,0,0,0,0,0,0,0,0,0,0,0,0,0,0,0,0,0,0,0,0,0,0,0,0,0,0,0,0,0,0,0,0,0,0,0,0,0,0,0,0,0,0,0,0,0,0,0,0,0,0,0,0,0,0,0,0,0,0,0,0,0,0,0,0,0,0,0,0,0,0 } };
const TfLiteAffineQuantization quant27 = { (TfLiteFloatArray*)&quant27_scale, (TfLiteIntArray*)&quant27_zero, 0 };
const ALIGN(16) int8_t tensor_data28[1*3*3*96] = { 
  /* [0][0][][] */ -16,5,-20,103,-17,24,-61,-53,18,-6,100,-9,4,-7,-5,54,5,18,-34,3,74,3,32,-33,3,17,43,47,20,13,25,47,-8,27,6,-15,5,48,-57,-29,20,10,26,18,-84,-61,24,-5,-11,-19,-8,-7,50,5,-9,1,-3,-35,27,-31,26,-4,127,26,-13,-10,13,-54,65,36,2,-9,79,-31,69,3,17,-127,29,63,1,14,127,-15,37,28,-31,-20,35,-7,-15,80,1,19,-2,13, -47,13,-8,9,53,-8,-10,-127,39,13,-127,-4,-16,-10,3,90,18,-28,-15,-15,77,-96,127,27,-62,-31,-105,-18,26,36,-49,17,117,12,-14,-1,-24,127,-63,-127,9,-19,-30,14,46,-127,127,-45,-76,50,49,7,39,-63,33,56,36,42,-102,84,127,32,4,-21,42,-38,-98,-2,37,-31,-19,43,-49,-47,105,-4,-29,-59,-34,63,-67,60,-14,8,-11,47,54,-40,-28,53,-13,70,-127,-32,23,-127, 0,-5,-23,-74,8,18,38,20,-2,-4,5,62,0,-13,-12,6,-13,21,-19,17,5,25,24,-33,1,-31,10,10,-8,5,46,-79,42,17,11,-22,12,4,-33,-24,7,3,-15,7,22,-32,21,1,7,-9,6,-5,5,6,-4,8,-7,45,7,-3,11,-18,2,-17,-28,-17,29,-53,-107,-8,41,-19,-127,-21,-11,15,11,-10,5,12,-15,22,-35,-4,-42,20,26,35,-25,-16,25,-12,18,6,-2,-45, 
  /* [0][1][][] */ -39,61,-18,37,-86,-16,-10,-44,26,96,-45,-21,-31,-24,-7,63,127,-23,-89,-14,60,-127,-29,17,-35,-47,-127,-7,36,37,-49,26,-127,-76,-58,3,67,-3,-48,44,-19,87,0,-3,35,-55,-13,-32,127,44,-3,20,45,9,-36,-17,31,10,-126,127,-36,-89,21,127,-60,-37,-82,127,-37,127,-19,51,-36,-53,37,7,-35,-69,127,47,127,35,7,-1,127,29,-98,46,-38,-35,-106,40,98,101,29,-58, 127,127,127,127,-46,-127,127,24,127,-127,16,-127,-107,127,127,127,-16,-127,-68,-127,127,22,-68,127,127,127,-55,-127,127,127,-127,127,-8,-127,-123,127,-127,-44,92,109,-127,-127,127,127,127,-120,-108,127,-13,127,-127,-127,-127,127,127,-127,127,-127,-43,40,-103,-27,-71,-67,127,127,-69,127,127,-107,-127,127,-42,127,-127,-127,-127,125,-76,127,-43,127,80,127,-38,-127,-25,-105,-127,-125,-24,-127,-21,-127,-127,118, -23,67,-38,2,127,70,-21,47,6,23,-12,-5,-26,-31,-14,-7,-104,-19,-127,38,31,76,-13,-116,-34,-40,125,68,9,36,72,9,123,-48,127,-4,56,5,-95,10,35,23,-22,1,-23,-54,-13,-42,81,14,-11,40,-6,-4,-72,-14,25,20,127,-90,2,127,0,-36,-112,-29,-76,97,15,-18,112,22,-16,-55,11,44,-28,-6,-45,-2,-48,7,47,24,-91,35,127,-46,33,-21,127,-10,-113,35,33,19, 
  /* [0][2][][] */ -4,-39,-21,-60,-5,14,42,31,-2,10,-19,52,23,-33,-7,6,41,5,12,22,-9,29,-17,-25,2,-23,9,2,-10,-7,50,-75,-38,68,-30,-25,33,-35,-60,17,9,10,-34,19,13,-82,-12,-1,-10,7,17,-8,8,1,-22,6,-1,43,-49,34,-6,-13,5,17,-6,-10,23,-53,-57,12,-22,-13,-119,-30,0,17,14,-12,55,17,23,21,-39,16,12,25,-22,9,6,24,23,-6,22,39,-7,-29, -26,-7,-27,24,-45,73,-25,65,6,-5,55,-12,127,-6,-19,-18,0,-37,-59,25,-22,78,-45,-110,-47,-46,102,66,14,43,54,-2,-122,64,-12,-23,-28,-26,-127,-3,44,-13,-15,36,-26,-43,-19,-48,-61,28,69,25,-11,-79,31,52,17,26,77,-55,20,-57,-8,1,19,-26,-127,-57,-11,-27,-63,20,37,-45,-30,-7,-44,24,-58,1,50,34,19,11,5,62,-92,127,16,127,-30,-18,113,-22,47,83, -9,-34,-26,27,13,64,-43,13,5,-7,1,14,12,-51,-11,-13,-43,-1,19,21,-24,6,-21,4,-3,20,-3,50,-3,-6,35,28,16,43,22,-23,-6,-26,-35,6,10,-12,22,9,-73,-31,-13,4,-2,-16,-1,-4,-9,9,-16,-5,-1,-49,13,-29,-21,49,9,-29,-10,-2,35,-58,45,6,55,-22,31,-54,-20,21,11,12,-6,23,-31,31,89,-14,-20,54,39,-8,108,12,3,-19,8,-22,-7,-51, 
};
const TfArray<4, int> tensor_dimension28 = { 4, { 1,3,3,96 } };
const TfArray<96, float> quant28_scale = { 96, { 0.0079251360148191452, 0.0060345963574945927, 0.010611407458782196, 0.0020821930374950171, 0.0071352780796587467, 0.0079787503927946091, 0.014444583095610142, 0.0031317293178290129, 0.0044646915048360825, 0.016996460035443306, 0.0061679729260504246, 0.015665501356124878, 0.004759117029607296, 0.018095042556524277, 0.006063646636903286, 0.0048896814696490765, 0.0044314134865999222, 0.015749994665384293, 0.0028859507292509079, 0.0079328380525112152, 0.0020042336545884609, 0.0073598525486886501, 0.0083652650937438011, 0.013745497912168503, 0.0089766727760434151, 0.0097818998619914055, 0.0058076512068510056, 0.012363076210021973, 0.0050816573202610016, 0.0047423234209418297, 0.0045085428282618523, 0.0077690840698778629, 0.0051909852772951126, 0.0043794834055006504, 0.0077608539722859859, 0.0094029996544122696, 0.018531084060668945, 0.0051466603763401508, 0.0034556346945464611, 0.0071463226340711117, 0.009149615652859211, 0.011600956320762634, 0.016176929697394371, 0.0068964604288339615, 0.0082304049283266068, 0.0037072165869176388, 0.0088514406234025955, 0.0080525195226073265, 0.0028434235136955976, 0.0093857450410723686, 0.0093592191115021706, 0.009588104672729969, 0.0092397760599851608, 0.0090620694682002068, 0.0084555186331272125, 0.017834214493632317, 0.022710906341671944, 0.0099383341148495674, 0.0052044973708689213, 0.0042996834963560104, 0.010557452216744423, 0.0074329436756670475, 0.01217797864228487, 0.0054859570227563381, 0.0092695821076631546, 0.0057162586599588394, 0.0044862786307930946, 0.0036973371170461178, 0.017000142484903336, 0.011282104067504406, 0.0062054479494690895, 0.0067229182459414005, 0.0076713096350431442, 0.0067664841189980507, 0.0073388447053730488, 0.011025090701878071, 0.020493678748607635, 0.0024231697898358107, 0.0097321793437004089, 0.013098712079226971, 0.0072543080896139145, 0.019902611151337624, 0.0064401263371109962, 0.006242790725082159, 0.0057105068117380142, 0.0040669757872819901, 0.0068880105391144753, 0.0064974618144333363, 0.007256816141307354, 0.0056089903227984905, 0.007548243273049593, 0.0061018848791718483, 0.0059281783178448677, 0.0212832260876894, 1.1813704967498779, 0.0031731121707707644, } };
const TfArray<96, int> quant28_zero = { 96, { 0,0,0,0,0,0,0,0,0,0,0,0,0,0,0,0,0,0,0,0,0,0,0,0,0,0,0,0,0,0,0,0,0,0,0,0,0,0,0,0,0,0,0,0,0,0,0,0,0,0,0,0,0,0,0,0,0,0,0,0,0,0,0,0,0,0,0,0,0,0,0,0,0,0,0,0,0,0,0,0,0,0,0,0,0,0,0,0,0,0,0,0,0,0,0,0 } };
const TfLiteAffineQuantization quant28 = { (TfLiteFloatArray*)&quant28_scale, (TfLiteIntArray*)&quant28_zero, 3 };
const ALIGN(16) int32_t tensor_data29[96] = { 9688, -7939, 3505, 42346, -1041, -4571, -10774, 3849, -2482, 1096, 2687, -1304, 518, -6399, 7188, -6309, -2420, 16085, 23012, 2459, 4266, -2409, 1410, -604, 16423, -1292, -1005, -2255, -4742, -7684, 8651, -8803, -50, -2091, -901, 10400, 1220, -3190, 19397, 443, -197, 1771, -9353, -7544, -7241, 68389, -93, 17899, 40868, -12442, 119, 6283, 7314, -179, -7839, 2337, -7946, 1875, 1948, -5312, -1885, -298, -13381, -149, 1854, 20948, 28420, 20411, -11495, 411, -13972, -677, 32628, 9996, 1004, 988, 17880, 30677, 37, -6395, -1810, -4461, 329, -2800, 1191, 1240, 1671, -544, 1402, -2997, -140, 1465, -370, 729, 44, 51374, };
const TfArray<1, int> tensor_dimension29 = { 1, { 96 } };
const TfArray<96, float> quant29_scale = { 96, { 0.00018647378601599485, 0.00014199050201568753, 0.00024968018988147378, 4.8992777010425925e-05, 0.00016788889479357749, 0.0001877353060990572, 0.00033987255301326513, 7.3687748226802796e-05, 0.00010505156387807801, 0.00039991672383621335, 0.00014512878260575235, 0.00036860004183836281, 0.00011197922867722809, 0.00042576572741381824, 0.00014267403457779437, 0.00011505133443279192, 0.00010426855442347005, 0.00037058812449686229, 6.7904722527600825e-05, 0.00018665501556824893, 4.7158438974292949e-05, 0.00017317300080321729, 0.00019682977290358394, 0.00032342347549274564, 0.0002112158399540931, 0.0002301623608218506, 0.0001366506185149774, 0.00029089592862874269, 0.0001195684089907445, 0.00011158408597111702, 0.00010608336015138775, 0.00018280198855791241, 0.00012214083108119667, 0.00010304667375748977, 0.0001826083316700533, 0.0002212470571976155, 0.00043602552614174783, 0.00012109789531677961, 8.1309051893185824e-05, 0.0001681487774476409, 0.00021528507932089269, 0.00027296369080431759, 0.00038063366082496941, 0.0001622696581762284, 0.0001936565968208015, 8.7228625488933176e-05, 0.00020826919353567064, 0.0001894710585474968, 6.6904081904795021e-05, 0.00022084105876274407, 0.00022021692711859941, 0.00022560247452929616, 0.0002174065011786297, 0.00021322516840882599, 0.0001989533775486052, 0.00041962857358157635, 0.00053437426686286926, 0.00023384316591545939, 0.00012245876132510602, 0.00010116902558365837, 0.0002484106516931206, 0.00017489278980065137, 0.00028654068592004478, 0.00012908133794553578, 0.00021810781618114561, 0.00013450020924210548, 0.00010555949847912416, 8.699616591911763e-05, 0.00040000336593948305, 0.00026546127628535032, 0.00014601054135710001, 0.00015818631800357252, 0.00018050140351988375, 0.00015921139856800437, 0.00017267870134674013, 0.00025941390777006745, 0.00048220422468148172, 5.7015760830836371e-05, 0.00022899245959706604, 0.00030820499523542821, 0.00017068960005417466, 0.00046829675557091832, 0.00015153238200582564, 0.00014688920055050403, 0.00013436486187856644, 9.5693547336850315e-05, 0.00016207083535846323, 0.00015288146096281707, 0.00017074862262234092, 0.0001319762523053214, 0.00017760573246050626, 0.00014357376494444907, 0.00013948655396234244, 0.00050078181084245443, 0.027796953916549683, 7.4661467806436121e-05, } };
const TfArray<96, int> quant29_zero = { 96, { 0,0,0,0,0,0,0,0,0,0,0,0,0,0,0,0,0,0,0,0,0,0,0,0,0,0,0,0,0,0,0,0,0,0,0,0,0,0,0,0,0,0,0,0,0,0,0,0,0,0,0,0,0,0,0,0,0,0,0,0,0,0,0,0,0,0,0,0,0,0,0,0,0,0,0,0,0,0,0,0,0,0,0,0,0,0,0,0,0,0,0,0,0,0,0,0 } };
const TfLiteAffineQuantization quant29 = { (TfLiteFloatArray*)&quant29_scale, (TfLiteIntArray*)&quant29_zero, 0 };
const ALIGN(16) int8_t tensor_data30[16*1*1*96] = { 
  /* [0][0][][] */ 2,24,-14,22,40,68,-34,-27,41,-2,13,2,-11,8,18,68,0,-8,-6,-9,93,-50,5,-19,-23,-40,-44,-95,-3,-6,48,41,112,-7,0,0,7,-21,-22,2,-34,16,19,-27,-2,-26,-16,21,-14,20,-1,-12,-37,-16,11,-4,39,21,-15,-31,-62,20,-13,-5,8,5,52,4,13,-1,-3,-23,-66,0,2,0,-3,-86,2,-20,38,-20,-59,-46,32,-14,10,26,-4,-2,25,-26,19,17,-15,127, 
  /* [1][0][][] */ 82,-103,43,92,-16,-65,-15,-45,-27,-109,0,28,2,-78,-44,-49,-94,0,32,21,-44,-110,-48,23,127,-82,-88,13,-36,105,-14,53,6,8,-46,33,-21,1,49,-28,-4,-81,75,-41,-64,16,54,-11,48,20,-19,-73,64,-92,42,-20,35,28,-6,-116,38,-75,14,-56,0,-97,31,43,42,61,-45,9,-111,35,-16,77,36,96,13,-19,41,12,-93,33,-91,64,-2,61,-45,8,31,6,3,-49,38,-4, 
  /* [2][0][][] */ 30,20,7,-23,-1,-12,-2,25,59,-14,9,73,-3,14,52,5,-26,-20,11,-6,-21,-71,4,-49,-9,-7,-32,32,0,17,119,-53,6,-82,-42,41,17,127,-47,-15,11,-13,-11,37,-51,-46,-44,17,30,33,-26,-35,28,8,-21,-27,-25,-7,-5,32,-3,0,75,93,5,-78,21,-67,-8,-24,-9,28,-26,2,-22,8,18,52,2,11,22,81,37,-21,-17,0,-15,2,21,-3,-6,-51,-51,-6,-3,55, 
  /* [3][0][][] */ -14,-13,-32,41,32,-24,2,-25,-13,19,14,12,13,-2,55,-10,42,-45,7,12,-11,-21,-7,14,-22,16,14,6,30,-52,58,-20,16,-15,-14,44,-16,-7,-5,15,16,-67,29,-22,-1,3,6,-5,-127,45,-8,25,-116,-52,-28,-35,26,14,-12,59,-5,25,12,26,-15,-88,-31,34,62,17,3,37,-46,15,-12,-48,-51,-58,30,-44,19,-24,25,74,40,58,29,19,35,-4,-8,8,-26,-1,-20,-31, 
  /* [4][0][][] */ -2,-33,19,-66,-6,-10,-49,7,-17,-47,-22,-9,0,71,2,8,57,-13,6,3,-4,27,60,5,-5,-7,15,17,5,-13,-1,-17,-41,8,-1,18,43,-26,-6,-7,17,9,-97,-31,24,-10,-6,-14,11,85,-9,-21,-19,-17,-1,-12,1,-35,27,31,13,-5,3,-4,33,-111,17,-19,-46,7,-17,-10,-20,12,-14,29,-24,54,51,1,18,2,127,-40,40,-6,-14,-1,64,9,0,19,-39,33,-8,-53, 
  /* [5][0][][] */ -5,2,-8,-5,-7,-14,5,109,54,-15,-14,-22,-16,32,49,30,-22,-15,-4,-37,-47,-23,-7,-44,4,14,24,88,76,1,68,47,-64,4,-12,-12,-54,-42,-32,-1,-30,-13,-14,-13,56,16,16,6,12,17,-4,2,-31,-8,-8,-2,-21,-24,0,35,-55,29,-26,-38,9,12,-18,10,1,7,3,20,20,5,7,-12,-7,27,7,113,2,-47,32,22,-2,-8,4,-29,-5,-25,24,-127,-36,-30,-9,-114, 
  /* [6][0][][] */ -22,-4,-14,-50,-7,-28,-14,19,-6,18,-20,1,34,-61,7,-3,-11,-63,30,6,0,-5,-22,19,72,-9,-3,-1,23,-6,14,-12,-26,-5,-31,4,16,3,22,36,-5,-21,-56,-23,-9,-19,23,-127,23,35,15,5,6,2,-12,-46,33,-11,2,4,15,29,-1,9,35,60,27,-17,-23,-14,11,-15,12,10,44,-11,-31,31,0,5,-15,-1,47,-36,-5,37,11,-21,15,5,-37,-11,-25,4,-4,16, 
  /* [7][0][][] */ 19,17,32,-20,-9,-3,-8,-25,-7,-15,-19,-12,-13,-95,26,8,-12,-38,-15,-12,8,-23,-39,-7,-29,-13,-2,-18,15,10,10,2,-19,0,-20,-16,0,-11,-32,24,6,-8,-27,33,-9,16,-17,73,3,28,-17,-31,-28,4,-11,-51,44,-4,1,-2,-8,5,-15,-3,-24,38,17,-24,-14,-11,4,47,-15,-7,-8,4,50,7,-6,-26,5,-38,38,-6,-38,127,-15,-2,-37,-25,-1,15,-30,-6,-8,5, 
  /* [8][0][][] */ -66,36,-51,6,42,-7,-16,27,16,81,-39,17,29,38,68,-14,-12,30,-68,26,22,26,-34,4,-40,-23,12,21,40,-96,0,-14,21,4,-1,-9,-14,34,-43,48,13,28,1,-127,-39,-17,41,-21,-45,37,5,55,-95,83,9,-5,5,-20,-20,-28,13,-39,9,30,-21,37,28,-20,-13,-9,39,85,-23,30,43,33,-16,-97,3,-40,-8,-19,32,7,-53,10,-7,-47,2,38,-28,-4,31,-15,-14,-31, 
  /* [9][0][][] */ 24,-63,-33,-39,13,18,-25,23,28,-12,-2,15,-40,-20,15,20,-9,6,46,-19,-25,-5,-28,-41,34,18,32,-8,-36,-33,-18,-1,-1,18,17,33,4,39,-28,25,12,10,-19,-95,8,-13,26,-127,-35,-6,-1,29,-12,7,-15,8,-47,25,-16,15,16,20,15,22,28,116,30,45,4,-12,10,-24,-3,-1,-39,15,68,-5,18,16,-17,6,16,-41,1,21,-10,5,-45,41,-36,-5,1,8,2,-21, 
  /* [10][0][][] */ 33,55,-25,36,65,-124,-11,-24,-1,48,25,-11,-16,22,13,-88,14,35,-21,36,-94,-15,-15,-36,-71,-31,-61,46,21,11,6,46,-13,-19,21,-10,74,-20,-8,-10,-20,71,48,-29,-61,-9,-45,7,-25,-17,-44,-7,-17,-17,6,-8,15,25,-26,-15,-5,5,-20,25,6,40,62,32,21,-4,24,62,-57,-20,-56,-20,6,34,-22,8,31,-7,-67,-36,61,-58,98,-15,-18,8,25,-16,79,33,-10,-127, 
  /* [11][0][][] */ 39,38,-30,23,-3,16,51,3,0,-10,-22,-5,5,8,40,6,0,-6,-99,-4,5,7,8,-3,-45,-13,-5,7,0,20,-1,-14,-10,5,4,18,4,11,-6,26,7,25,57,-95,33,-43,8,-3,-127,10,15,-54,29,24,-17,8,-16,-10,9,0,14,-15,-10,11,-44,56,-19,11,15,-9,26,15,-48,-29,9,27,-9,-43,-45,8,15,0,90,48,8,-10,-17,-8,-1,27,-16,-4,-1,4,-20,11, 
  /* [12][0][][] */ -29,-6,4,6,-24,39,4,-7,127,-9,-3,5,7,-1,-33,-37,26,28,11,80,49,28,-1,-20,5,-1,19,-32,-105,4,39,-39,8,2,-8,-18,26,-3,32,-13,-56,-19,2,9,-3,18,5,-15,20,4,-48,26,21,-15,9,7,68,-28,9,14,20,-25,16,-12,-13,19,-36,8,-4,5,-19,-27,11,9,-66,6,23,-12,10,-61,-8,10,44,39,-18,-9,-27,-18,7,17,2,43,-18,-15,16,3, 
  /* [13][0][][] */ 29,-17,-25,26,34,-2,12,0,-6,5,10,2,13,-4,14,-19,16,-74,-36,12,-8,-18,10,6,6,13,1,-3,-13,-34,-7,18,0,7,3,42,17,3,9,18,3,6,21,35,17,15,-9,-127,19,-6,7,7,-14,-1,17,8,-13,17,26,6,8,18,-4,5,-8,-17,-20,-52,7,17,-7,-34,-17,41,-7,23,-26,4,18,-3,29,-18,-12,17,15,29,10,20,-2,2,21,-7,4,13,-12,-11, 
  /* [14][0][][] */ -110,-54,29,44,26,-20,-30,12,-14,8,-12,4,51,4,-127,-3,72,-12,-12,28,-12,0,35,19,-93,9,30,-14,-40,-65,-33,5,8,15,31,-53,28,27,8,14,17,26,4,-27,22,112,63,57,-103,44,10,33,-48,-6,34,-6,8,15,53,54,34,46,12,37,2,-11,-42,38,6,72,-48,-96,-65,0,-7,43,-9,40,84,7,43,19,18,30,38,13,64,37,20,42,59,-5,3,31,19,-22, 
  /* [15][0][][] */ 80,-31,35,5,-10,85,28,-18,-16,40,5,-8,-92,-29,-22,32,11,42,48,-21,6,35,-86,58,25,-1,41,-6,27,48,-59,-74,18,-42,47,7,40,-39,-59,-101,-9,36,-1,35,1,49,-28,-37,111,-41,-49,25,39,-127,62,-100,5,-55,10,19,-119,-9,14,17,72,-28,-50,33,-33,71,-32,13,45,19,17,-1,23,-49,59,-9,-15,0,31,83,-10,3,11,-39,-2,-20,61,1,-65,68,19,-8, 
};
const TfArray<4, int> tensor_dimension30 = { 4, { 16,1,1,96 } };
const TfArray<16, float> quant30_scale = { 16, { 0.01891261525452137, 0.0081906337291002274, 0.011683795601129532, 0.010222561657428741, 0.014423218555748463, 0.01610887423157692, 0.013613478280603886, 0.014331908896565437, 0.0080721369013190269, 0.0130268894135952, 0.015621746890246868, 0.02721271850168705, 0.019646808505058289, 0.017717704176902771, 0.023278683423995972, 0.015418729744851589, } };
const TfArray<16, int> quant30_zero = { 16, { 0,0,0,0,0,0,0,0,0,0,0,0,0,0,0,0 } };
const TfLiteAffineQuantization quant30 = { (TfLiteFloatArray*)&quant30_scale, (TfLiteIntArray*)&quant30_zero, 0 };
const ALIGN(16) int32_t tensor_data31[16] = { -908, 912, -3849, 31174, 28437, 8756, -3085, -1385, 24506, 785, 31413, 22853, -8891, 13508, 29849, -27214, };
const TfArray<1, int> tensor_dimension31 = { 1, { 16 } };
const TfArray<16, float> quant31_scale = { 16, { 0.00044500271906144917, 0.00019272079225629568, 0.00027491283253766596, 0.00024053086235653609, 0.00033936984254978597, 0.00037903233896940947, 0.00032031713635660708, 0.00033722139778546989, 0.00018993263074662536, 0.00030651505221612751, 0.00036757052293978631, 0.00064029928762465715, 0.00046227785060182214, 0.00041688716737553477, 0.00054773373994976282, 0.0003627936530392617, } };
const TfArray<16, int> quant31_zero = { 16, { 0,0,0,0,0,0,0,0,0,0,0,0,0,0,0,0 } };
const TfLiteAffineQuantization quant31 = { (TfLiteFloatArray*)&quant31_scale, (TfLiteIntArray*)&quant31_zero, 0 };
const ALIGN(16) int8_t tensor_data32[96*1*1*16] = { 
  /* [0][0][][] */ -3,67,-23,74,27,22,13,-18,50,30,-66,110,7,-127,51,-123, 
  /* [1][0][][] */ 19,51,-7,-24,32,-19,127,-105,-5,79,-11,-14,-7,-49,14,5, 
  /* [2][0][][] */ -127,18,-51,-49,-19,-31,34,72,-12,72,122,-35,-67,5,53,-75, 
  /* [3][0][][] */ -50,58,41,68,-47,54,78,127,19,65,-116,46,52,-58,-68,-46, 
  /* [4][0][][] */ 11,-5,46,73,-24,70,1,50,15,-9,-1,-9,19,3,-127,-29, 
  /* [5][0][][] */ -7,-20,55,-16,6,-28,-4,33,-65,103,-29,-127,-9,29,-62,-19, 
  /* [6][0][][] */ 20,3,37,-6,44,62,-73,-67,3,-6,40,-9,127,-20,-20,-38, 
  /* [7][0][][] */ 22,10,127,-16,-23,-37,3,-9,-79,24,-72,-52,9,-9,31,-13, 
  /* [8][0][][] */ 14,29,85,59,-45,93,10,44,32,-5,20,-94,-41,0,-127,-82, 
  /* [9][0][][] */ 42,-117,62,66,9,-25,-16,33,127,8,48,14,-8,5,-114,-39, 
  /* [10][0][][] */ -43,-104,3,8,-115,21,-35,65,96,127,66,-35,-12,79,68,4, 
  /* [11][0][][] */ 67,-22,62,-119,53,-36,-116,-127,-81,38,-27,-20,36,1,31,-104, 
  /* [12][0][][] */ -14,27,28,-22,-31,-31,-104,-7,-45,-81,-13,17,25,127,96,44, 
  /* [13][0][][] */ -27,-97,-56,34,-6,-69,8,-17,62,25,16,-47,19,20,127,52, 
  /* [14][0][][] */ -6,-38,60,33,32,45,2,127,14,43,8,-32,19,38,-65,108, 
  /* [15][0][][] */ 27,-44,1,67,16,-9,94,3,13,-127,10,-30,8,-17,-3,-29, 
  /* [16][0][][] */ 16,-82,-49,20,-4,-12,41,-78,127,76,67,6,1,78,62,77, 
  /* [17][0][][] */ -91,-62,80,98,127,65,26,-5,119,-46,3,-62,6,47,-120,61, 
  /* [18][0][][] */ -11,5,2,22,-127,9,12,39,-64,-12,-34,-70,-7,-125,71,-28, 
  /* [19][0][][] */ 37,-66,23,-78,79,31,-99,66,85,-65,74,27,-3,30,67,127, 
  /* [20][0][][] */ 43,-12,63,-62,-12,13,-29,53,-12,-48,91,-10,-3,15,-34,127, 
  /* [21][0][][] */ -50,-14,-2,-65,17,3,-63,-48,-27,57,4,11,-127,-13,37,-6, 
  /* [22][0][][] */ 33,-23,31,-26,21,-74,-5,-6,-127,15,-12,-42,-8,-10,79,-7, 
  /* [23][0][][] */ 17,9,18,-4,6,10,-7,4,-1,-2,35,-9,127,-3,-2,-41, 
  /* [24][0][][] */ -9,-19,0,-63,-29,-18,45,-2,-50,8,-8,-127,-4,-105,43,20, 
  /* [25][0][][] */ -125,-2,-56,-1,91,-19,-86,-127,8,66,-39,-65,-87,-64,25,-61, 
  /* [26][0][][] */ 34,-4,56,-89,127,-28,-4,12,96,-60,39,-16,3,80,-1,45, 
  /* [27][0][][] */ 99,-29,18,-32,-30,-54,-11,-24,-30,14,-127,15,22,-16,10,50, 
  /* [28][0][][] */ -126,-12,-127,-111,65,-6,72,-69,0,49,-62,31,30,-19,-44,49, 
  /* [29][0][][] */ -88,-50,-10,127,-17,5,1,-65,0,9,-83,48,31,-95,34,-41, 
  /* [30][0][][] */ 53,-8,127,-31,58,41,-41,72,-46,-93,67,-31,-11,20,-62,87, 
  /* [31][0][][] */ 9,-106,8,-54,8,-49,16,-40,-19,47,100,8,-39,93,60,127, 
  /* [32][0][][] */ -13,65,-38,33,-127,17,-67,-44,-50,-28,5,42,12,45,38,61, 
  /* [33][0][][] */ 31,-13,31,127,22,4,15,-41,-94,43,54,-16,1,6,1,93, 
  /* [34][0][][] */ 33,13,29,6,65,-27,-127,-6,-26,72,-43,1,-26,14,-3,11, 
  /* [35][0][][] */ 67,21,-10,-6,13,-127,-49,-15,-35,-23,-79,-3,59,14,0,32, 
  /* [36][0][][] */ 8,3,-127,-4,39,13,-40,18,-29,-21,-6,-4,-13,12,-5,6, 
  /* [37][0][][] */ 3,-3,127,-12,-57,19,33,-62,-18,28,-52,14,30,-12,15,-1, 
  /* [38][0][][] */ -122,47,5,38,41,95,4,-14,20,-31,127,-22,-31,22,-22,-31, 
  /* [39][0][][] */ -12,-17,13,36,29,-17,-127,36,24,32,1,-38,6,-20,1,-1, 
  /* [40][0][][] */ -25,71,-10,127,18,51,83,50,-73,-26,-24,61,11,64,-72,-36, 
  /* [41][0][][] */ 18,-6,-51,-30,-58,-11,127,84,-44,92,-37,-16,7,56,47,-1, 
  /* [42][0][][] */ 48,-12,10,-4,76,21,-53,77,104,-116,127,58,-36,35,-125,2, 
  /* [43][0][][] */ -69,2,34,-32,36,24,-68,-74,-18,44,-5,-10,-127,-6,30,-9, 
  /* [44][0][][] */ 6,1,-18,-10,-9,-22,-3,-48,127,7,15,37,21,68,6,47, 
  /* [45][0][][] */ -59,-89,8,-94,35,-18,-14,51,22,-74,-15,-29,35,114,-35,127, 
  /* [46][0][][] */ -49,15,-32,85,-85,-27,7,-78,-127,46,-40,-19,-5,26,6,-33, 
  /* [47][0][][] */ -34,-5,-116,127,-2,56,13,-30,10,70,73,60,-31,-23,34,-13, 
  /* [48][0][][] */ -12,-5,32,-127,23,-27,-17,2,-52,7,24,-29,-27,53,83,45, 
  /* [49][0][][] */ -36,24,42,102,-24,26,-47,-15,13,-48,-86,-30,-6,-40,-75,-127, 
  /* [50][0][][] */ 2,67,25,-127,67,15,-30,55,120,-41,-22,4,5,-51,20,-20, 
  /* [51][0][][] */ 6,-19,2,-13,25,-22,-45,-127,24,-56,9,-2,-3,-20,11,6, 
  /* [52][0][][] */ 12,7,-19,33,25,-3,-54,85,-61,127,-42,-45,62,101,11,-28, 
  /* [53][0][][] */ 5,93,11,-51,-20,7,9,-7,-70,-57,-35,40,19,-127,-101,21, 
  /* [54][0][][] */ -9,3,22,36,49,-32,8,-44,2,29,-15,-19,-2,127,-42,-17, 
  /* [55][0][][] */ -124,127,96,-26,43,-1,-26,-10,-57,23,102,-16,-15,-35,121,-7, 
  /* [56][0][][] */ 61,7,27,-106,92,6,-8,40,62,-41,40,127,-29,20,85,47, 
  /* [57][0][][] */ -28,-9,11,61,-35,20,56,127,-5,20,14,-38,-9,48,13,33, 
  /* [58][0][][] */ 31,127,-8,-116,9,30,-12,35,87,-12,-8,84,1,-82,38,63, 
  /* [59][0][][] */ 46,79,63,-94,-23,-6,22,31,2,14,39,-65,-8,-127,-101,27, 
  /* [60][0][][] */ 43,-8,104,-43,-40,127,42,-27,-11,43,-41,-12,40,11,27,-5, 
  /* [61][0][][] */ -28,28,-41,-57,-66,3,117,127,-32,71,-3,3,18,72,13,-29, 
  /* [62][0][][] */ 13,0,-23,-31,-75,0,-40,15,-18,-35,-14,-33,32,-127,101,12, 
  /* [63][0][][] */ 32,-37,-8,-89,42,4,-116,-127,-55,102,-30,0,57,3,24,-51, 
  /* [64][0][][] */ -28,-14,34,49,72,3,-29,-127,31,-100,-7,-45,-12,-19,-8,-7, 
  /* [65][0][][] */ -127,17,31,-59,14,80,52,-46,-72,38,48,-17,-4,20,-25,-35, 
  /* [66][0][][] */ 51,6,83,23,-47,20,-15,44,-38,0,60,-84,-15,58,-127,-16, 
  /* [67][0][][] */ 11,-9,-30,51,38,-40,-105,-108,24,-127,-74,-25,-95,14,-71,31, 
  /* [68][0][][] */ 5,-43,-74,54,-55,-85,10,-69,-34,11,47,-77,-33,55,127,-5, 
  /* [69][0][][] */ -29,35,-58,62,-11,-122,18,77,40,10,69,-4,127,44,-2,18, 
  /* [70][0][][] */ 9,18,-44,-44,-52,9,127,91,-30,51,-19,19,4,35,20,5, 
  /* [71][0][][] */ 9,-15,-29,-57,19,0,14,46,-32,-37,-8,6,15,-127,78,8, 
  /* [72][0][][] */ 38,36,-6,41,32,-37,-40,-127,26,70,-64,24,39,69,38,43, 
  /* [73][0][][] */ -31,-127,-34,-60,-77,-19,42,-20,-16,14,-37,-37,23,-44,66,-13, 
  /* [74][0][][] */ -29,17,59,113,-9,-4,-127,92,36,-31,-31,-39,5,-6,-10,-7, 
  /* [75][0][][] */ -56,36,-30,22,-25,94,96,125,-10,69,-5,-15,-127,75,11,20, 
  /* [76][0][][] */ -1,-18,-40,-50,41,-90,-127,-126,-42,-30,4,-15,57,-15,80,-58, 
  /* [77][0][][] */ -29,10,-26,-18,-40,-2,-9,-39,127,12,-65,11,-9,45,18,-82, 
  /* [78][0][][] */ -92,-127,-18,83,63,76,-30,29,-4,-69,-83,80,41,-30,102,72, 
  /* [79][0][][] */ 33,5,40,-47,127,11,44,22,86,13,0,31,-1,-19,3,-41, 
  /* [80][0][][] */ -13,-46,57,-116,-28,-10,-9,6,-98,-29,4,-74,0,127,-28,34, 
  /* [81][0][][] */ 23,-30,44,46,7,54,-21,-33,6,0,7,-69,-13,32,-127,18, 
  /* [82][0][][] */ -73,-24,44,-102,6,-30,-7,-26,-24,-35,-57,-127,-24,-81,-101,18, 
  /* [83][0][][] */ 20,3,-62,-97,-44,-11,2,45,-66,-6,13,-76,33,-127,38,66, 
  /* [84][0][][] */ 127,46,19,50,-50,7,-64,28,-5,-30,95,14,-73,22,81,-74, 
  /* [85][0][][] */ 11,-15,28,-12,50,-6,-22,127,-77,-100,-70,-35,-5,77,69,-112, 
  /* [86][0][][] */ 21,-18,-8,-3,-57,50,-52,31,-70,-50,42,-24,-19,-127,-10,33, 
  /* [87][0][][] */ 127,-33,28,5,-44,-47,2,2,3,13,-124,17,41,-15,-13,24, 
  /* [88][0][][] */ 27,63,-19,5,-13,-42,-22,-23,98,26,41,35,-9,-26,95,-127, 
  /* [89][0][][] */ 39,67,-83,-11,-44,-18,32,-60,58,61,35,-35,-33,8,-22,-127, 
  /* [90][0][][] */ 8,-41,19,-68,-66,50,127,-82,125,-107,53,-106,62,-4,-46,1, 
  /* [91][0][][] */ 24,6,-12,-62,-30,2,18,-32,-21,22,61,54,10,-22,19,127, 
  /* [92][0][][] */ 38,3,18,23,60,-5,-74,-127,40,-62,10,-34,-40,-17,-1,-36, 
  /* [93][0][][] */ 64,11,39,-127,-43,-10,-28,42,36,-73,78,-27,-38,105,-17,25, 
  /* [94][0][][] */ -95,41,-109,7,50,-127,-35,-7,-17,-65,74,-34,-10,-15,-1,0, 
  /* [95][0][][] */ 0,93,41,-127,5,22,-32,16,21,-59,-50,-72,-3,43,-75,5, 
};
const TfArray<4, int> tensor_dimension32 = { 4, { 96,1,1,16 } };
const TfArray<96, float> quant32_scale = { 96, { 0.00077917193993926048, 0.00084415753372013569, 0.00037943859933875501, 0.000257968989899382, 0.00044002779759466648, 0.00083339971024543047, 0.0014944885624572635, 0.00086702662520110607, 0.00019569534924812615, 0.001156708924099803, 0.00063791131833568215, 0.000527121068444103, 0.00051781849469989538, 0.00040294710197485983, 0.000173214401002042, 0.0012887751217931509, 0.00048777429037727416, 0.00040008386713452637, 0.00036903345608152449, 0.00071106106042861938, 0.00092920626047998667, 0.0013260316336527467, 0.00061689555877819657, 0.0018198891775682569, 0.0016852219123393297, 0.000529133016243577, 0.00054652953986078501, 0.00043567182729020715, 0.00071120605571195483, 0.00021203215874265879, 0.00011504651774885133, 0.00042853516060858965, 0.0010491205612197518, 0.0007001780322752893, 0.00083696364890784025, 0.00064297026256099343, 0.0010758854914456606, 0.0012569737154990435, 0.00026947757578454912, 0.0022798220161348581, 0.00027636249433271587, 0.00052928348304703832, 0.00014094248763285577, 0.00086089532123878598, 0.00031038894667290151, 0.0005840337835252285, 0.00093386933440342546, 0.00049945031059905887, 0.00026361594791524112, 0.00079007726162672043, 0.00064843083964660764, 0.00056960940128192306, 0.00088214827701449394, 0.00074184517143294215, 0.0011839094804599881, 0.00040895113488659263, 0.00058599741896614432, 0.00031762098660692573, 0.0011157954577356577, 0.00053624639986082911, 0.00093691609799861908, 0.00027858879184350371, 0.00050558173097670078, 0.00047733142855577171, 0.00074340752325952053, 0.00052236957708373666, 0.00052768387831747532, 0.00074041768675670028, 0.00055368430912494659, 0.00073512899689376354, 0.00070706207770854235, 0.00046474728151224554, 0.00033911882201209664, 0.0003844582533929497, 0.0012215233873575926, 0.00069644569884985685, 0.00049468578072264791, 0.00073244626400992274, 0.0011303516803309321, 0.0012238472700119019, 0.00040683068800717592, 0.00032901263330131769, 0.00059111957671120763, 0.00037750389310531318, 0.0014192098751664162, 0.00080931023694574833, 0.00073738337960094213, 0.00012841295392718166, 0.00038192889769561589, 0.00063889013836160302, 0.00065750221256166697, 0.0018359787063673139, 0.00073102978058159351, 0.00064733653562143445, 0.0006218401831574738, 0.00038501707604154944, } };
const TfArray<96, int> quant32_zero = { 96, { 0,0,0,0,0,0,0,0,0,0,0,0,0,0,0,0,0,0,0,0,0,0,0,0,0,0,0,0,0,0,0,0,0,0,0,0,0,0,0,0,0,0,0,0,0,0,0,0,0,0,0,0,0,0,0,0,0,0,0,0,0,0,0,0,0,0,0,0,0,0,0,0,0,0,0,0,0,0,0,0,0,0,0,0,0,0,0,0,0,0,0,0,0,0,0,0 } };
const TfLiteAffineQuantization quant32 = { (TfLiteFloatArray*)&quant32_scale, (TfLiteIntArray*)&quant32_zero, 0 };
const ALIGN(16) int32_t tensor_data33[96] = { 1480, 4767, 13739, 24795, 18883, -3388, -1464, 5336, 33546, -3340, 11713, 4669, 6810, 16070, 38191, 1230, 2722, 8660, 16925, 4613, -267, 457, 9008, -977, 4352, 104, 11404, 8971, 6403, 46496, 69068, 16172, 4366, -815, 6769, 2472, 1344, 3234, 27912, -698, 19112, 8263, 52907, -3458, 29322, 7331, 5177, 15092, 43447, 7382, -632, 8365, -3407, -319, -2429, 7894, -508, 16582, 5052, 7658, 4749, 13801, 8206, 5686, 9315, 10324, 6897, -4983, 8475, -2698, 4286, 9448, 17041, 7380, -3513, -5454, 9253, 396, 1922, -972, 14073, 13989, 4302, 14433, 2274, 278, 8778, 83400, 10339, 9795, 5474, -163, 5587, 6846, 4950, 12412, };
const TfArray<1, int> tensor_dimension33 = { 1, { 96 } };
const TfArray<96, float> quant33_scale = { 96, { 0.00027974785189144313, 0.00030307978158816695, 0.00013623069389723241, 9.2619186034426093e-05, 0.00015798416279722005, 0.00029921735404059291, 0.00053656956879422069, 0.00031129052513279021, 7.0260939537547529e-05, 0.00041529579902999103, 0.00022903073113411665, 0.00018925346375908703, 0.00018591353727970272, 0.00014467100845649838, 6.2189552409108728e-05, 0.00046271181781776249, 0.00017512669728603214, 0.00014364300295710564, 0.00013249491166789085, 0.0002552938531152904, 0.00033361499663442373, 0.00047608811291866004, 0.00022148540301714092, 0.00065339892171323299, 0.00060504901921376586, 0.00018997582083102316, 0.00019622172112576663, 0.00015642023936379701, 0.0002553459198679775, 7.6126380008645356e-05, 4.1305407648906112e-05, 0.00015385793813038617, 0.00037666811840608716, 0.00025138648925349116, 0.00030049693305045366, 0.00023084705753717571, 0.00038627759204246104, 0.00045129409409128129, 9.6751136879902333e-05, 0.0008185296319425106, 9.9223048891872168e-05, 0.00019002983754035085, 5.0602899136720225e-05, 0.00030908916960470378, 0.00011143963638460264, 0.00020968695753253996, 0.00033528919448144734, 0.00017931876936927438, 9.4646624347660691e-05, 0.00028366321930661798, 0.00023280757886823267, 0.0002045081346295774, 0.00031671967008151114, 0.00026634632376953959, 0.0004250616766512394, 0.00014682664186693728, 0.00021039196872152388, 0.00011403617827454582, 0.00040060654282569885, 0.00019252975471317768, 0.00033638309105299413, 0.0001000223564915359, 0.00018152013944927603, 0.00017137736722361296, 0.00026690727099776268, 0.00018754752818495035, 0.00018945553165394813, 0.00026583383441902697, 0.00019879051251336932, 0.00026393501320853829, 0.00025385807384736836, 0.00016685925947967917, 0.00012175459414720535, 0.00013803290494251996, 0.00043856629054062068, 0.00025004646158777177, 0.00017760814807843417, 0.00026297182193957269, 0.00040583268855698407, 0.00043940063915215433, 0.00014606532931793481, 0.00011812614684458822, 0.00021223098156042397, 0.00013553607277572155, 0.00050954212201759219, 0.00029056848143227398, 0.00026474441983737051, 4.6104389184620231e-05, 0.00013712479267269373, 0.00022938215988688171, 0.00023606450122315437, 0.00065917556639760733, 0.00026246326160617173, 0.00023241469170898199, 0.00022326067846734077, 0.00013823354674968868, } };
const TfArray<96, int> quant33_zero = { 96, { 0,0,0,0,0,0,0,0,0,0,0,0,0,0,0,0,0,0,0,0,0,0,0,0,0,0,0,0,0,0,0,0,0,0,0,0,0,0,0,0,0,0,0,0,0,0,0,0,0,0,0,0,0,0,0,0,0,0,0,0,0,0,0,0,0,0,0,0,0,0,0,0,0,0,0,0,0,0,0,0,0,0,0,0,0,0,0,0,0,0,0,0,0,0,0,0 } };
const TfLiteAffineQuantization quant33 = { (TfLiteFloatArray*)&quant33_scale, (TfLiteIntArray*)&quant33_zero, 0 };
const ALIGN(16) int8_t tensor_data34[1*3*3*96] = { 
  /* [0][0][][] */ -46,-71,-10,127,23,70,76,-60,-14,-17,-15,-6,-29,1,37,-1,-8,-44,26,23,17,-127,127,5,-82,6,52,-28,-126,-127,39,24,14,27,58,-18,-30,-11,31,-5,-14,26,-111,69,24,-67,39,45,-17,54,-23,20,4,-7,15,47,-90,-49,-58,-19,-12,0,11,37,67,-25,73,10,-10,16,19,127,23,23,27,0,-11,16,127,-7,-15,15,-27,20,127,22,-75,-16,-2,-32,-17,-40,1,-25,-15,26, 127,-127,75,106,-42,127,40,-119,71,4,-16,127,127,-99,-13,16,10,127,127,-111,127,-81,80,67,-127,-118,-63,-34,-55,46,-59,-20,-90,53,-127,-84,-43,-14,-53,65,-1,127,127,82,-52,-111,-112,-51,-15,-127,43,84,67,-31,45,82,-47,41,-80,-112,-44,-40,-62,67,73,-62,25,28,-83,32,-18,91,117,127,15,20,2,57,-33,51,65,127,127,-23,-9,76,-112,127,-120,-103,4,-127,-91,-127,-37,106, -74,-12,29,-83,15,-24,66,-9,81,-36,-26,17,-19,-7,-8,-14,-9,-16,6,-3,-23,-102,29,0,-122,96,7,-55,119,50,-14,8,2,14,13,-29,-9,33,20,12,24,12,-121,64,17,-18,37,14,-14,11,-15,5,-10,2,-1,20,-66,5,-35,52,3,41,32,-1,-7,-39,-32,20,10,2,-4,37,10,-25,-5,5,-12,-7,-83,2,-21,-25,-18,3,-111,8,-32,-22,-52,23,-27,-29,28,-26,-14,0, 
  /* [0][1][][] */ -64,-74,74,-37,-48,93,19,127,-51,-22,-1,-118,26,-113,78,29,0,-59,-17,89,52,-71,46,50,-93,-11,127,-22,-24,64,123,-106,-127,91,-87,-55,-35,32,-29,103,-50,-26,-6,47,-49,127,-22,65,17,96,21,-1,15,-54,27,31,127,121,-71,-84,127,-32,-35,127,71,-38,-15,0,127,39,127,97,-40,102,-5,14,14,13,-31,8,-44,124,-81,111,2,35,-56,30,76,-127,-34,-6,127,-70,-21,1, 66,126,57,-116,127,83,89,39,-127,127,127,-38,-64,-127,-127,127,127,-63,-123,-50,102,99,-124,127,-106,-91,-42,127,-127,109,-127,-127,-91,127,106,127,127,-127,-106,127,-66,-97,113,-127,-127,-35,-127,-127,127,-112,87,44,127,127,127,-127,99,-127,-127,127,20,-79,-127,-98,-127,127,-127,127,-127,-127,-107,-84,-127,-78,127,127,-127,127,-78,127,127,30,-43,-127,61,127,93,46,127,13,127,2,-68,37,127,-127, -53,-13,-52,38,-56,-96,36,-28,19,-37,-28,93,2,89,14,9,-3,65,-7,127,1,-89,-42,5,-69,106,-68,-20,-70,-17,17,-65,-70,38,5,-17,-29,45,-68,45,127,-4,-39,30,-40,-58,16,46,10,119,-11,6,-37,-71,4,18,95,1,0,22,-33,127,90,-51,-43,12,37,-13,-78,121,-19,-86,-1,-53,-16,-19,27,16,77,-36,-70,-43,56,15,-48,-19,74,23,13,62,-45,21,-44,98,-26,-6, 
  /* [0][2][][] */ -65,1,-3,-21,13,-44,66,24,55,-28,-36,-3,19,19,-27,1,-6,65,6,1,-55,-84,1,-8,-26,-54,36,-69,91,39,26,24,18,-9,-13,-45,-8,37,-4,2,-17,-7,-70,107,3,30,12,37,-15,-30,12,-20,20,-1,10,14,-70,24,-13,14,15,1,-21,-3,-1,-48,-46,16,-33,12,26,30,14,-19,28,3,17,4,-77,-14,-10,-6,16,15,-127,8,14,-44,-61,-50,-29,-49,9,58,-18,-7, 121,33,-127,-35,-71,-24,38,29,-65,-31,-18,-106,-75,111,-13,37,1,-50,-9,-126,92,-54,-40,-1,-103,127,-50,20,-36,-21,-8,-5,-64,17,27,5,-23,-28,127,58,10,-14,69,-33,-39,76,-68,-43,-33,-5,-127,-127,-52,-25,3,37,-66,-7,10,39,-7,-17,8,-46,-54,32,63,-20,116,107,-24,-71,12,-57,4,3,100,3,50,23,13,-97,-51,4,3,9,127,39,-62,38,-20,-106,41,80,-10,25, -53,12,-18,27,16,-67,-127,1,-12,-9,-16,5,15,-26,19,-2,-6,-16,5,17,-49,-74,13,0,18,-96,21,3,-48,-39,-6,14,44,-20,-6,-25,-36,3,41,-36,22,-2,-49,-33,3,67,23,17,-8,-4,11,-9,15,7,-3,-7,-62,-13,0,-37,-11,11,82,-11,34,-3,-2,26,2,4,-4,20,-17,16,-1,15,35,0,73,-11,4,-9,-8,-16,73,-1,42,-39,57,39,-18,-49,-8,2,-15,-16, 
};
const TfArray<4, int> tensor_dimension34 = { 4, { 1,3,3,96 } };
